{"layers": [{"weight": [[-0.05577120929956436, -0.22568847239017487, -0.0735221579670906, 0.053838688880205154, -0.07153838872909546, -0.07828795164823532, -0.08032190054655075, 0.2402414083480835, 0.026477765291929245, -0.04292828589677811, 0.1177600547671318, -0.08209310472011566, -0.014590894803404808, -0.03212403133511543, 0.017660606652498245, -0.004705389961600304, -0.18023020029067993, 0.06990423053503036, -0.16116340458393097, -0.0671502873301506, 0.12333152443170547, 0.09658799320459366, -0.11855565756559372, 0.2203855812549591, 0.05596090108156204, 0.059758130460977554, -0.006201519630849361, 0.15836836397647858, 0.15132534503936768, 0.06972045451402664, -0.0278455913066864, 0.19808097183704376, -0.08225250989198685, 0.10685679316520691, -0.005202351603657007, 0.24284999072551727, -0.12063740193843842, 0.1500243991613388, 0.20210357010364532, -0.017594320699572563, 0.052325647324323654, 0.18256500363349915, 0.07581483572721481, 0.09525179117918015, 0.029786476865410805, 0.23638837039470673, 0.06497332453727722, -0.016043031588196754, -0.23141857981681824, -0.06865148991346359, 0.0038536929059773684, -0.12074899673461914, 0.008345523849129677, -0.09514709562063217, 0.21390241384506226, -0.04258168116211891, 0.034207746386528015, -0.038353510200977325, -0.14275355637073517, -0.008025364018976688, -0.007779823616147041, -0.07303766161203384, 0.26185333728790283, 0.22583411633968353, -0.22569751739501953, -0.017819523811340332, 0.01924138516187668, 0.041702114045619965, -0.10344020277261734, -0.2212410718202591, -0.04362890496850014, -0.08420730382204056, 0.05305090919137001, -0.24933557212352753, -0.09790553152561188, 0.1012745201587677, -0.10160388797521591, 0.08349112421274185, 0.1142682209610939, 0.1068776398897171, 0.21747441589832306, -0.018008030951023102, 0.007883839309215546, -0.06889580935239792, 0.16363704204559326, 0.012339920736849308, 0.06618036329746246, 0.08681926876306534, 0.058660294860601425, 0.053331464529037476, 0.0466378852725029, -0.07865946739912033, 0.004298372659832239, 0.06740366667509079, 0.04773327708244324, 0.01373592484742403, -0.17574462294578552, 0.0031322031281888485, 0.10941223055124283, 0.01110463123768568, 0.0610276535153389, -0.09863027185201645, 0.03489246964454651, -0.15803414583206177, 0.007884161546826363, -0.10162999480962753, -0.15130119025707245, 0.050761010497808456, 0.16372591257095337, 0.013886401429772377, 0.04539177566766739, 0.31392812728881836, 0.10221351683139801, -0.03620469197630882, -0.0935516506433487, 0.05541339889168739, -0.056141190230846405, -0.094057098031044, 0.010553795844316483, -0.026382505893707275, 0.14814509451389313, -0.1948084682226181, -0.02938205748796463, -0.013083101250231266, -0.018086140975356102, 0.0470520444214344, 0.051172878593206406, -0.10199715942144394, -0.06691388785839081, 0.0428006611764431, -0.08270100504159927, 0.031182648614048958, -0.09832275658845901, -0.07444299012422562, -0.10272564738988876, 0.07623791694641113, -0.07758171856403351, -0.03079844079911709, -0.22993354499340057, -0.03682878986001015, -0.09103570878505707, -0.026481449604034424, 0.1290380209684372, 0.1243508979678154, -0.15173998475074768, -0.0765869989991188, 0.11383591592311859, -0.05142970010638237, 0.0749393180012703, -0.06256405264139175, -0.12553143501281738, 0.04646313935518265, 0.05804114043712616, 0.0008181281154975295, -0.026501154527068138, 0.10886338353157043, 0.1315566897392273, 0.0363079272210598, 0.007019026204943657, 0.1084691733121872, 0.007007730659097433, 0.023834489285945892, 0.11370768398046494, -0.019144844263792038, 0.09865381568670273, 0.042445454746484756, -0.07684969156980515, -0.04668126255273819, -0.012612910941243172, 0.12667998671531677, 0.02617849037051201, -0.08565821498632431, -0.10285031050443649, -0.1591109037399292, 0.03005722351372242, -0.06391936540603638, -0.015213518403470516, -0.15982823073863983, 0.23280605673789978, -0.05841768905520439, -0.0699266716837883, -0.03150028735399246, -0.0809987336397171, -0.16143660247325897, 0.1634855717420578, 0.07092317938804626, -0.12537741661071777, -0.11552413552999496, -0.04009460285305977, -0.10527914762496948, 0.05994420126080513, -0.05773042142391205, -0.037088602781295776, -0.038486234843730927, 0.009083992801606655, 0.09064235538244247, 0.016410397365689278, -0.1640343964099884, 0.1750616580247879, 0.23378972709178925, 0.07389931380748749, -0.011309854686260223, -0.06911921501159668, -0.08216375857591629, -0.12378191947937012, 0.09651296585798264, -0.11816389113664627, -0.00643665948882699, -0.07377618551254272, 0.03732815384864807, 0.023795628920197487, -0.019236542284488678, 0.17594951391220093, -0.18983596563339233, 0.07731971889734268, 0.04077284783124924, -0.012925885617733002, -0.02113560400903225, -0.09003844857215881, 0.047399990260601044, 0.08077205717563629, 0.027654847130179405, 0.04914878308773041, 0.036044616252183914, 0.07499030232429504, -0.012099224142730236, 0.051674339920282364, 0.09589974582195282, 0.16387580335140228, 0.09037920087575912, 0.27759647369384766, -0.04667699709534645, 0.20570535957813263, 0.023154355585575104, -0.1104087233543396, 0.0979856550693512, -0.019081344828009605, -0.02903234399855137, 0.04030141234397888, -0.055706143379211426, -0.05184878036379814, 0.01633607968688011, -0.14380846917629242, 0.005425012670457363, 0.07448552548885345, 0.16963353753089905, 0.0997391864657402, 0.06945289671421051, -0.06239714473485947, -0.0336686447262764, -0.008127105422317982, 0.1712242215871811, -0.14114727079868317, -0.05538727715611458, -0.0297918152064085, 0.05155410245060921], [0.016616858541965485, 0.15800322592258453, 0.05763426795601845, 0.04730592295527458, -0.06677158921957016, -0.054757650941610336, 0.12620311975479126, -0.03831504285335541, -0.2066057026386261, 0.02025066316127777, 0.0030136271379888058, 0.09629395604133606, -0.009433457627892494, 0.13257552683353424, -0.11943253874778748, -0.02280566282570362, 0.17734691500663757, 0.07085394859313965, 0.1270652860403061, 0.014408377930521965, 0.08358675241470337, -0.019680390134453773, 0.12605100870132446, -0.1587858349084854, -0.04607921466231346, 0.12168587744235992, -0.006461353041231632, 0.05900147184729576, 0.07758675515651703, 0.11667320132255554, -0.219443678855896, 0.02120317332446575, 0.01642146147787571, -0.05627593770623207, 0.012414651922881603, -0.0013742848532274365, 0.07611779868602753, -0.11849614232778549, -0.0646527037024498, 0.27223700284957886, -0.07155969738960266, -0.051089029759168625, -0.06930037587881088, 0.05791279301047325, -0.028204448521137238, 0.18601903319358826, 0.08272392302751541, -0.01410248689353466, -0.02051709219813347, 0.06634611636400223, 0.035964950919151306, -0.000959916680585593, -0.12872764468193054, -0.29157689213752747, 0.04708661511540413, -0.0050455667078495026, 0.09467929601669312, 0.04887497425079346, 0.1359225958585739, -0.012628902681171894, 0.06071925908327103, 0.038323841989040375, -0.1780359447002411, -0.12568537890911102, 0.051536157727241516, 0.06275490671396255, 0.09965291619300842, 0.026808537542819977, -0.07641257345676422, -0.13324719667434692, -0.014783370308578014, 0.001846485654823482, -0.03855423629283905, -0.12608465552330017, -0.04171602800488472, 0.16918238997459412, 0.013197715394198895, -0.01884930208325386, 0.03142407163977623, -0.00783468596637249, -0.14107950031757355, 0.08678063005208969, -0.05994414910674095, 0.0032009470742195845, 0.06638835370540619, 0.0922146812081337, -0.3152458667755127, -0.029452869668602943, 0.05031132325530052, -0.033606186509132385, 0.1575973778963089, 0.12957991659641266, 0.02087397314608097, -0.026801520958542824, 0.03368860483169556, -0.0921926498413086, 0.2501843571662903, 0.06466973572969437, -0.12978313863277435, -0.015368413180112839, 0.0903424620628357, 0.035434212535619736, 0.10487909615039825, -0.19455577433109283, -0.021722955629229546, -0.1429549753665924, 0.054054465144872665, 0.04805316776037216, -0.05283552035689354, -0.037580717355012894, -0.1776200383901596, 0.1042943075299263, 0.07449856400489807, -0.15884122252464294, -0.1128007099032402, 0.01999638043344021, -0.10137338936328888, 0.026942988857626915, 0.09210032969713211, -0.04899197816848755, -0.0089394086971879, -0.031096436083316803, 0.09888814389705658, -0.1266462355852127, -0.13046787679195404, 0.08351291716098785, 0.10815698653459549, -0.03928856924176216, 0.12291494011878967, 0.04395407438278198, -0.07122425734996796, 0.06978072226047516, -0.03860554099082947, -0.07074736803770065, -0.11472068727016449, 0.15815608203411102, 0.16992586851119995, 0.11048826575279236, 0.006761548109352589, -0.0010134445037692785, -0.0024952238891273737, 0.0018131150864064693, -0.1736851930618286, -0.12986013293266296, -0.06175971031188965, 0.19665126502513885, 0.115357905626297, -0.000786967168096453, 0.16678209602832794, 0.05534713342785835, 0.02021859586238861, 0.10904553532600403, -0.03711925819516182, 0.0633639469742775, 0.013550116680562496, -0.03463581204414368, -0.17471276223659515, -0.19084112346172333, -0.11770268529653549, 0.02611258625984192, 0.02585098147392273, -0.017668703570961952, 0.03679412975907326, -0.016907555982470512, -0.040070559829473495, -0.047170426696538925, -0.16831903159618378, -0.006307387724518776, -0.09525478631258011, -0.14089229702949524, 0.3047885596752167, -0.04180098697543144, 0.11484214663505554, -0.1948254555463791, 0.009754360653460026, 0.13978005945682526, -0.06626112014055252, -0.1003725603222847, -0.04352227598428726, -0.13647179305553436, -0.15239886939525604, 0.037402715533971786, -0.14137569069862366, -0.10025414079427719, -0.034914035350084305, 0.07905241847038269, -0.2856733500957489, 0.08627840876579285, -0.013036522082984447, -0.006220624316483736, -0.08938684314489365, -0.02819584496319294, 0.0006273651961237192, -0.08633927255868912, -0.09905509650707245, -0.19336672127246857, -0.11931151896715164, -0.06837138533592224, 0.09427793323993683, 0.032721005380153656, 0.13163141906261444, -0.0731947273015976, -0.05587282031774521, -0.011146320030093193, 0.04004890099167824, -0.09584388136863708, 0.01354222372174263, 0.09959182888269424, 0.1857161521911621, 0.02733766660094261, -0.010152321308851242, -0.04041369631886482, 0.08172637224197388, -0.06817465275526047, -0.09689784795045853, -0.0021090141963213682, 0.025837969034910202, 0.0606912225484848, -0.14775769412517548, -0.035502757877111435, -0.10712508857250214, 0.12801387906074524, 0.08897187560796738, -0.1412685364484787, 0.04498014599084854, -0.011292463168501854, -0.08875536173582077, -0.15466351807117462, 0.12088082730770111, -0.11769641935825348, -0.060440920293331146, 0.1473594307899475, -0.056679703295230865, 0.03586406633257866, 0.057625118643045425, -0.0011822284432128072, -0.09677262604236603, -0.14814326167106628, 0.054017215967178345, -0.06245158240199089, -0.021346168592572212, 0.19579999148845673, -0.028309641405940056, -0.1218646764755249, -0.04969840496778488, -0.03225173428654671, -0.10888785868883133, -0.007256897632032633, 0.08634863793849945, -0.09682311117649078, -0.12545838952064514, 0.002271413803100586, 0.09837886691093445, 0.14081095159053802, -0.2014414221048355, -0.024034835398197174], [0.023559248074889183, 0.12273500859737396, -0.07675150781869888, -0.012208784930408001, 0.08341306447982788, -0.03824790194630623, 0.04027673602104187, 0.030715569853782654, 0.23049966990947723, 0.053183216601610184, -0.09728828817605972, 0.12500444054603577, -0.08317042887210846, -0.1126839891076088, -0.18923640251159668, -0.00038375071017071605, 0.2368229329586029, -0.23284462094306946, -0.18866902589797974, -0.062144599854946136, -0.09179531037807465, 0.02937537245452404, -0.2060520052909851, 0.07610306888818741, -0.01627625897526741, -0.11996178328990936, -0.057990897446870804, 0.09384346753358841, -0.04530824348330498, 0.055783241987228394, 0.019496411085128784, 0.024671193212270737, -0.1781085878610611, 0.10557270050048828, -0.2467210590839386, 0.023548193275928497, -0.13631458580493927, -0.07454048842191696, 0.1815558224916458, 0.029728874564170837, -0.23638732731342316, -0.09024415165185928, 0.2782333493232727, 0.040385838598012924, -0.038549378514289856, 0.015131785534322262, 0.11384104937314987, 0.04162593185901642, -0.14234410226345062, 0.19505725800991058, 0.14688344299793243, 0.06522814929485321, -0.01725567877292633, -0.029170718044042587, -0.0963645949959755, -0.04824880510568619, 0.09021472185850143, -0.0631265714764595, 0.13937415182590485, 0.07022097706794739, -0.13458974659442902, -0.0049432991072535515, 0.12712626159191132, 0.12631607055664062, -0.14538449048995972, -0.027679648250341415, 0.03626883774995804, 0.02738523855805397, 0.02829085662961006, -0.08722560852766037, -0.21874451637268066, -0.10696518421173096, 0.11889234185218811, 0.09891443699598312, -0.09259112179279327, 0.02832874469459057, -0.023330556228756905, 0.0603695809841156, 0.21396586298942566, -0.1594175547361374, 0.024510741233825684, 0.14612606167793274, 0.0849972516298294, 0.026674602180719376, 0.15819282829761505, -0.08825945854187012, -0.08824445307254791, -0.026554368436336517, -0.12218163162469864, -0.0055776904337108135, 0.10138071328401566, 0.030185641720891, -0.03386057913303375, -0.01808740943670273, 0.0056078494526445866, -0.04133814573287964, 0.01773482747375965, 0.036129213869571686, 0.022060293704271317, 0.03671015799045563, 0.1400727778673172, 0.1305622011423111, 0.020816005766391754, -0.04560296982526779, -0.04710356891155243, 0.038527440279722214, 0.09226671606302261, -0.09690523147583008, 0.03536614775657654, 0.0637422427535057, 0.18403901159763336, -0.07849417626857758, -0.08367522805929184, -0.0711241215467453, 0.03185141459107399, -0.001131371478550136, 0.06484581530094147, 0.05419580265879631, -0.0878862664103508, 0.01151948794722557, 0.13371269404888153, 0.08813892304897308, -0.1049468070268631, -0.02338225767016411, -0.09979567676782608, 0.009151914156973362, 0.09541406482458115, 0.0737350657582283, 0.1206166073679924, 0.06667827814817429, 0.09275143593549728, -0.0056914472952485085, -0.019102992489933968, -0.07891744375228882, -0.007466514594852924, 0.007508689071983099, -0.02125418186187744, -0.2314659208059311, 0.13013431429862976, -0.08555112779140472, -0.13738130033016205, -0.1183977723121643, -0.2228543609380722, 0.0026678903959691525, 0.18455100059509277, -0.03388657048344612, -0.0897582471370697, 0.016960838809609413, 0.06768155097961426, -0.058187708258628845, -0.009785065427422523, 0.0554339773952961, 0.06112555041909218, -0.12107542157173157, 0.20937617123126984, -0.036679260432720184, -0.05186351761221886, -0.09798937290906906, 0.01020803302526474, -0.06498739123344421, -0.05545605719089508, -0.04122736677527428, -0.08214453607797623, -0.07904210686683655, -0.09235133230686188, -0.10081309080123901, 0.2976171672344208, -0.12379047274589539, 0.14410164952278137, 0.13359345495700836, -0.07520882785320282, -0.001187765272334218, 0.09509069472551346, -0.0807955265045166, -0.1912200152873993, -0.060621704906225204, -0.1761038452386856, 0.08561620861291885, -0.012560458853840828, -0.10045137256383896, 0.02125506103038788, -0.10308588296175003, 0.22029338777065277, -0.1095530092716217, 0.12151409685611725, -0.039707642048597336, 0.010236452333629131, -0.18848265707492828, 0.098299540579319, -0.16364213824272156, 0.016005685552954674, -0.05134773626923561, 0.1743287444114685, 0.01879182830452919, -0.17206360399723053, 0.0022594830952584743, -0.03762520104646683, -0.09392166882753372, 0.08397791534662247, 0.10351923853158951, -0.07836824655532837, 0.007624575402587652, -0.10826265066862106, 0.024987533688545227, 0.12739816308021545, -0.10697578638792038, -0.14591847360134125, -0.07487117499113083, 0.01828199066221714, 0.02380719967186451, 0.15461471676826477, -0.10525570809841156, -0.15843936800956726, -0.014398030936717987, -0.1241130381822586, 0.1051606610417366, 0.031217161566019058, 0.011905515566468239, -0.020993661135435104, 0.01673562079668045, 0.03802073001861572, -0.15253546833992004, -0.0156662967056036, 0.11329421401023865, -0.10815225541591644, -0.11094865947961807, -0.06984982639551163, 0.04107498750090599, 0.039677366614341736, -0.1715530902147293, 0.002374218311160803, -0.03702155873179436, -0.0353977344930172, -0.13302120566368103, 0.14496193826198578, -0.045122433453798294, -0.06878470629453659, -0.025634603574872017, -0.24612665176391602, -0.04967974126338959, -0.12680087983608246, -0.05815614014863968, 0.04758388176560402, -0.022519687190651894, 0.030558133497834206, -0.09888402372598648, 0.020466575399041176, 0.05831645801663399, 0.1344367116689682, -0.10561184585094452, -0.060118723660707474, -0.0418616347014904, 0.01732310652732849, 0.03604669123888016, 0.10456685721874237, -0.004031097516417503], [-0.19050349295139313, 0.09551798552274704, 0.3087305426597595, 0.03541266545653343, 0.04042067006230354, 0.1248854249715805, -0.16546548902988434, 0.0004749696818180382, -0.06517240405082703, 0.11910505592823029, -0.08001814037561417, 0.03069913014769554, -0.11636058986186981, 0.12066784501075745, -0.04302386939525604, 0.25442343950271606, -0.04933624342083931, 0.07478499412536621, 0.12346408516168594, 0.047206126153469086, 0.19270338118076324, 0.08056769520044327, 0.007603511679917574, 0.16630436480045319, 0.08332766592502594, -0.1349673718214035, -0.001834001042880118, 0.0006414999952539802, 0.05800353363156319, -0.008775435388088226, 0.042784933000802994, -0.0752660259604454, -0.0019540120847523212, -0.004326734691858292, 0.09324140101671219, 0.019100531935691833, 0.020927537232637405, 0.05987996980547905, -0.21037444472312927, 0.0617884062230587, 0.003102935617789626, 0.06313097476959229, 0.050001055002212524, -0.018018249422311783, -0.06756101548671722, 0.11032234877347946, -0.21789862215518951, 0.10288620740175247, -0.12092123180627823, 0.22166886925697327, -0.05069703608751297, 0.11390163004398346, 0.01886710152029991, -0.024549705907702446, -0.08147000521421432, 0.059491779655218124, -0.00016504463565070182, -0.1828625649213791, -0.010132458060979843, 0.06624747812747955, 0.00454349210485816, 0.1413673460483551, 0.06107916682958603, -0.00033903360599651933, -0.1018381416797638, -0.055942729115486145, 0.008494541049003601, 0.018014807254076004, 0.12240150570869446, 0.15815018117427826, 0.1773817092180252, -0.17021991312503815, -0.10545146465301514, 0.06816861778497696, 0.03315671160817146, -0.05026480555534363, 0.009373942390084267, 0.23006795346736908, -0.20502561330795288, 0.1783750355243683, -0.12042859196662903, 0.11119208484888077, 0.0700681135058403, -0.04338768124580383, -0.047825176268815994, -0.164144366979599, 0.05454261600971222, 0.09839362651109695, -0.02160368300974369, -0.09761455655097961, -0.011607651598751545, 0.16801339387893677, 0.10947466641664505, -0.08733810484409332, -0.025162849575281143, -0.06921833008527756, -0.00010965942783514038, -0.03835112228989601, 0.1457255333662033, -0.07289743423461914, 0.09285468608140945, 0.2330470234155655, 0.1106436550617218, 0.13742998242378235, -0.05333380773663521, -0.07446453720331192, -0.1492149829864502, 0.1450718343257904, 0.012484615668654442, 0.0022441886831074953, -0.08703426271677017, 0.05460243299603462, -0.11565575003623962, 0.021023020148277283, -0.1421058624982834, -0.1429937332868576, 0.03259505331516266, -0.039895474910736084, 0.05696854740381241, -0.021555369719862938, -0.05396369472146034, -0.0405304990708828, 0.09476292878389359, 0.10467910021543503, 0.12542065978050232, -0.10720276087522507, -0.11594746261835098, -0.08353672921657562, 0.021235063672065735, 0.1247536689043045, -0.029469352215528488, 0.011821241118013859, 0.1262185424566269, 0.1282360851764679, 0.007878345437347889, 0.06776270270347595, -0.03240884840488434, -0.07404327392578125, -0.12111151218414307, 0.06228962913155556, -0.21015624701976776, 0.05977838486433029, -0.22465458512306213, -0.01960287056863308, 0.005888654384762049, 0.15201899409294128, -0.06782563775777817, 0.05530252680182457, 0.1576710194349289, 0.11217902600765228, 0.09400429576635361, -0.021476587280631065, 0.00024962512543424964, -0.06963939219713211, -0.10337154567241669, 0.07652030140161514, -0.04731778800487518, 0.035923879593610764, -0.0450831800699234, 0.0718531459569931, 0.021426266059279442, 0.14184598624706268, -0.07520540803670883, -0.1748000681400299, -0.013419074937701225, 0.19334861636161804, 0.09926805645227432, 0.1640584021806717, -0.07929978519678116, 0.04131769761443138, 0.014586633071303368, 0.11701110005378723, 0.09399324655532837, 0.1131846234202385, 0.07269031554460526, -0.06038113310933113, -0.277513325214386, -0.0709344744682312, 0.020010093227028847, 0.11491434276103973, 0.08525948226451874, -0.09041621536016464, 0.09863900393247604, -0.087712362408638, -0.06746198982000351, -0.23888738453388214, -0.03498242050409317, -0.07999822497367859, 0.09575046598911285, 0.10748786479234695, -0.1262442022562027, -0.023177435621619225, -0.06566328555345535, 0.034867145121097565, -0.13206379115581512, 0.003676819847896695, -0.12219926714897156, -0.04264446720480919, -0.07774366438388824, -0.12690608203411102, -0.03990618512034416, -0.09863248467445374, 0.1299447864294052, 0.024531487375497818, -0.008405459113419056, 0.008296092972159386, 0.1708916574716568, -0.052001357078552246, -0.17825505137443542, 0.015334611758589745, 0.03350011631846428, 0.020321514457464218, -0.08558561652898788, -0.16144686937332153, -0.027170296758413315, 0.1280054748058319, -0.11076118797063828, -0.056037161499261856, -0.034074801951646805, -0.1530408263206482, -0.03103294037282467, -0.02200542949140072, 0.08117803931236267, 0.04114173352718353, 0.08255461603403091, 0.12377647310495377, -0.06820153445005417, 0.1123981922864914, 0.018048712983727455, -0.10226152092218399, -0.005493238102644682, -0.19971062242984772, -0.09398246556520462, 0.04579877108335495, 0.06822823733091354, 0.0026111607439816, -0.07616203278303146, 0.03540300950407982, -0.0752030462026596, -0.03255258500576019, -0.008526066318154335, -0.029502058401703835, -0.06711020320653915, 0.1061389222741127, -0.10750149190425873, -0.05390958487987518, -0.06481059640645981, -0.2737066149711609, 0.07044130563735962, -0.034308284521102905, -0.15480881929397583, -0.056072309613227844, 0.04827309027314186, -0.09247013926506042, -0.07634853571653366, -0.10825121402740479], [-0.008757837116718292, -0.14843569695949554, -0.0379335843026638, 0.00882885605096817, 0.008358201012015343, 0.10393013805150986, -0.09428391605615616, -0.21256199479103088, -0.1092073991894722, -0.23781640827655792, -0.11082448810338974, 0.06322688609361649, 0.08389656245708466, -0.09475957602262497, -0.023960163816809654, -0.120832659304142, -0.05962880328297615, 0.011093947105109692, -0.08273378759622574, 0.10194386541843414, -0.05483333393931389, 0.09335293620824814, 0.029549062252044678, 0.161161869764328, -0.20795656740665436, 0.17773427069187164, 0.0690339207649231, 0.014490309171378613, 0.18148308992385864, 0.06267964094877243, 0.17126978933811188, 0.048426393419504166, -0.06763424724340439, -0.07712634652853012, -0.1909695267677307, 0.3021818697452545, -0.14088653028011322, 0.21503716707229614, 0.08897601813077927, -0.3233623802661896, -0.18168587982654572, -0.12578468024730682, 0.006877209059894085, -0.05418452247977257, 0.04213830456137657, -0.05170823633670807, -0.01883731782436371, -0.09934946149587631, 0.03491101786494255, -0.004478047136217356, 0.1080670952796936, -0.1782016158103943, 0.052498750388622284, 0.2026435285806656, 0.07700715214014053, 0.12170296907424927, 0.050202708691358566, 0.07757408171892166, 0.0012696788180619478, -0.07627604156732559, -0.16758354008197784, 0.07106190174818039, -0.0772019773721695, -0.11037929356098175, -0.01028558611869812, -0.011951393447816372, -0.009554767981171608, -0.08998299390077591, -0.05167078226804733, 0.08576170355081558, 0.0544678270816803, 0.0009896017145365477, -0.08820266276597977, -0.2941932678222656, 0.1861705482006073, -0.0232081338763237, -0.07477323710918427, -0.1392057090997696, -0.10537125170230865, -0.19299733638763428, -0.0954747125506401, -0.031394362449645996, 0.02169184386730194, -0.03324658423662186, -0.019314704462885857, -0.06227060407400131, -0.1936393827199936, 0.02435387298464775, -0.09331485629081726, -0.013968942686915398, -0.10657383501529694, 0.05342788249254227, -0.07912043482065201, -0.20276889204978943, -0.14387600123882294, 0.04439816623926163, -0.03386344015598297, -0.271405965089798, 0.0014384131645783782, -0.01025098655372858, -0.03888162598013878, -0.10651887208223343, -0.12326138466596603, -0.002056068042293191, 0.13811653852462769, 0.08317992091178894, 0.042807187885046005, 0.16827455163002014, 0.03348774090409279, -0.03675910830497742, -0.011820629239082336, 0.1706032007932663, -0.13706131279468536, 0.2073628306388855, 0.07731488347053528, -0.08150225132703781, -0.1924777328968048, 0.011321432888507843, 0.18269136548042297, 0.03232193365693092, 0.05983017012476921, -0.030781352892518044, -0.03599913790822029, -0.013454158790409565, -0.04131609573960304, -0.14364035427570343, -0.0893993228673935, 0.0031603809911757708, -0.04083438217639923, 0.017495807260274887, 0.008867046795785427, -0.05464312061667442, -0.047049663960933685, -0.12543192505836487, 0.09358024597167969, -0.019748233258724213, 0.15419752895832062, -0.1727791279554367, 0.23355264961719513, -0.00080929632531479, 0.0013643876882269979, 0.07881822437047958, -0.05864196643233299, 0.15795786678791046, 0.12326935678720474, 0.10472255945205688, -0.054590314626693726, 0.14216749370098114, -0.08934079110622406, 0.13608619570732117, 0.07224196940660477, 0.034993164241313934, -0.10116459429264069, -0.08138136565685272, 0.036675434559583664, 0.09196868538856506, 0.13850702345371246, 0.020895052701234818, -0.07210110127925873, 0.10739146173000336, -0.17325644195079803, -0.11907736212015152, 0.06434545665979385, 0.06686322391033173, 0.03467291593551636, -0.06579018384218216, -0.028253743425011635, -0.03987031430006027, 0.07753431051969528, 0.08672884851694107, -0.02647794596850872, 0.014618881978094578, 0.09850787371397018, 0.026212748140096664, -0.1095777302980423, -0.17808212339878082, -0.14477671682834625, -0.03309459984302521, 0.13605530560016632, -0.20486889779567719, 0.012102997861802578, 0.1968574821949005, -0.03451109677553177, -0.013725855387747288, -0.0358702652156353, 0.04014962166547775, 0.07065116614103317, -0.10602559894323349, -0.28423646092414856, -0.07614120095968246, -0.040653619915246964, 0.14677545428276062, 0.004574420861899853, -0.017095189541578293, -0.024900900200009346, -0.11280332505702972, -0.002871132455766201, -0.0012169458204880357, -0.1743011772632599, 0.11356893926858902, -0.05307760834693909, -0.07178990542888641, 0.014110940508544445, -0.05778650566935539, -0.07604845613241196, -0.07495536655187607, 0.015004381537437439, 0.07672414928674698, -0.06351107358932495, 0.0699208676815033, -0.06929171085357666, 0.1176501214504242, 0.13180768489837646, -0.005021459888666868, -0.07434038072824478, 0.023701122030615807, -0.03233352676033974, -0.11543351411819458, -0.030665356665849686, -0.004403302446007729, -0.1133447140455246, 0.08062593638896942, 0.015548049472272396, 0.022357894107699394, 0.09503698348999023, 0.038941677659749985, 0.037432003766298294, -0.031011784449219704, 0.010614839382469654, 0.0750172883272171, 0.05408864840865135, 0.00854433048516512, 0.0364411361515522, 0.03905570134520531, 0.022482644766569138, -0.032293062657117844, 0.08657273650169373, -0.054751086980104446, 0.025656448677182198, -0.055062536150217056, -0.13369528949260712, -0.08715347945690155, -0.1989119052886963, 0.08687318116426468, -0.054953884333372116, 0.018735559657216072, -0.06100807338953018, -0.058169249445199966, -0.01868373714387417, -0.046089742332696915, -0.14619530737400055, -0.11046415567398071, -0.07265400886535645, -0.20129714906215668, 0.04398481175303459, 0.08546940237283707], [0.050578899681568146, -0.0917968899011612, -0.0884622260928154, -0.07779479026794434, -0.05345897376537323, -0.1487630009651184, 0.03560999780893326, -0.18474823236465454, 0.14941667020320892, -0.019267382100224495, 0.010624032467603683, 0.05893709510564804, -0.12567949295043945, 0.2405930459499359, 0.1132296621799469, -0.07908462733030319, -0.08205187320709229, -0.08430559188127518, -0.03399219736456871, 0.15590699017047882, -0.19010259211063385, -0.08559572696685791, -0.1227169930934906, -0.163386732339859, 0.011769639328122139, 0.10088909417390823, 0.007697392255067825, 0.10842899233102798, 0.14624688029289246, -0.00851572584360838, -0.11569327116012573, 0.052839405834674835, 0.07261116057634354, 0.06115696579217911, -0.11651761084794998, 0.05354198440909386, 0.06440801173448563, -0.24017547070980072, -0.07938588410615921, -0.15114013850688934, -0.08685683459043503, 0.1277141273021698, -0.13094088435173035, 0.02408973127603531, -0.0006792088388465345, 0.028989531099796295, 0.033261220902204514, 0.09085322171449661, -0.1605612337589264, 0.09700989723205566, -0.030585424974560738, -0.06563650071620941, 0.19101029634475708, 0.10812996327877045, 0.16828419268131256, 0.11548957228660583, -0.0234543364495039, -0.19295521080493927, 0.059898730367422104, 0.23357586562633514, 0.09692244231700897, 0.13086473941802979, 0.017400380223989487, -0.01402058731764555, -0.06160154566168785, -0.108505979180336, 0.06385337561368942, 0.16455060243606567, 0.006882815156131983, -0.18033543229103088, 0.05628298968076706, -0.05593432858586311, -0.06328721344470978, 0.1230531558394432, 0.08650758117437363, -0.0319625623524189, -0.035907357931137085, 0.10529997944831848, 0.08275498449802399, -0.07258307188749313, -0.0843638926744461, 0.11606790125370026, -0.08819305151700974, 0.10946059972047806, 0.15121027827262878, 0.04901937395334244, -0.08126597851514816, -0.03517519682645798, 0.15576115250587463, 0.04991856962442398, -0.03549802675843239, -0.03394204005599022, 0.04700668156147003, -0.06033451110124588, 0.0429772287607193, 0.14471295475959778, -0.1447657197713852, -0.012636728584766388, 0.027676576748490334, -0.025342222303152084, -0.02745291218161583, 0.10817968845367432, -0.08264980465173721, -0.03891032934188843, -0.013760939240455627, -0.1634291261434555, 0.016610538586974144, 0.044841911643743515, -0.08522675931453705, -0.006987906526774168, -0.018274059519171715, -0.026526911184191704, -0.16479326784610748, -0.029508309438824654, -0.004327976144850254, -0.08464007079601288, 0.011330011300742626, -0.0632939413189888, -0.1266586035490036, -0.030876243487000465, -0.07504062354564667, -0.003883006516844034, -0.10971587896347046, -0.06195855140686035, 0.028976310044527054, 0.04143988713622093, -0.023392586037516594, 0.111873097717762, 0.20621392130851746, 0.006210759282112122, -0.09573832154273987, -0.13457264006137848, 0.042793381959199905, 0.019431646913290024, -0.3089729845523834, -0.06253860890865326, 0.11557342112064362, -0.03315017372369766, 0.026018483564257622, -0.031651224941015244, -0.16729120910167694, -0.04033612087368965, 0.08094180375337601, -0.05496996268630028, 0.09493183344602585, 0.03538161516189575, -0.07104821503162384, -0.132600337266922, 0.04652755334973335, -0.005053865257650614, 0.04296385124325752, 0.024556830525398254, -0.001201815903186798, 0.039301563054323196, -0.0333036370575428, 0.09861697256565094, -0.03904283419251442, -0.024632427841424942, 0.035808317363262177, -0.16100457310676575, 0.051627177745103836, -0.07349015027284622, -0.009445265866816044, 0.073509581387043, -0.01948188617825508, -0.018209053203463554, -0.05706138163805008, -0.10393883287906647, 0.08922124654054642, 0.02248253859579563, -0.09507033973932266, -0.19279387593269348, -0.05318348854780197, -0.08075492829084396, -0.012237690389156342, 0.11976001411676407, -0.10577059537172318, -0.20352575182914734, 0.02739686705172062, 0.1335112601518631, -0.017492353916168213, 0.13560542464256287, -0.12162184715270996, 0.008933722041547298, 0.10701899975538254, -0.12705360352993011, -0.06913615763187408, -0.06244834139943123, -0.02147103101015091, -0.07999434322118759, -0.11477270722389221, 0.028335748240351677, 0.055495310574769974, 0.0468025803565979, -0.07342295348644257, -0.19160324335098267, -0.1575888842344284, 0.09143145382404327, 0.17693586647510529, 0.15800821781158447, -0.009147162549197674, -0.028486480936408043, -0.020269839093089104, 0.0724281296133995, 0.01436050795018673, 0.03728890419006348, 0.10829673707485199, -0.2155597060918808, 0.08448807150125504, -0.01448119431734085, -0.09434202313423157, 0.0329183004796505, 0.03585720807313919, 0.132106214761734, 0.13184259831905365, 0.020376311615109444, 0.010017391294240952, -0.07206317782402039, 0.03803079202771187, -0.03224616497755051, -0.006510720122605562, 0.09852653741836548, 0.0470438152551651, -0.08488810062408447, 0.10749093443155289, -0.07021346688270569, 0.08233151584863663, -0.0846228078007698, -0.027774544432759285, -0.012135841883718967, 0.010292225517332554, 0.0684601217508316, 0.005934512242674828, 0.33569854497909546, -0.059725914150476456, -0.030461637303233147, 0.17097139358520508, -0.0025464145001024008, -0.18651627004146576, -0.11766041070222855, 0.152536541223526, -0.08895821124315262, 0.033491671085357666, -0.2360561639070511, 0.04060335084795952, -0.04020894691348076, -0.16485151648521423, -0.12474305182695389, -0.19563816487789154, 0.1344824582338333, 0.15669851005077362, -0.14150868356227875, -0.02849399670958519, -0.0640370324254036, -0.0823163315653801, 0.046479105949401855], [0.03921445086598396, 0.05778098478913307, 0.01581503078341484, -0.08425882458686829, -0.2325872778892517, -0.2416372448205948, 0.021598950028419495, -0.007816523313522339, -0.08026845008134842, 0.02228696458041668, 0.18562354147434235, 0.0007997003267519176, 0.006946184206753969, 0.17989449203014374, -0.0066987136378884315, 0.023408515378832817, -0.24965915083885193, 0.009242305532097816, 0.14556410908699036, -0.13626794517040253, 0.04744166135787964, 0.07988525927066803, 0.16854482889175415, -0.10410922765731812, 0.035323962569236755, -0.05551471561193466, -0.05351460725069046, 0.055299561470746994, -0.08679065108299255, -0.25465214252471924, 0.0828590840101242, 0.0752679854631424, -0.004798883106559515, 0.04130971431732178, -0.03333139792084694, 0.058933913707733154, -0.08126430213451385, 0.04782138019800186, -0.06045901030302048, -0.10737615823745728, -0.1848631650209427, -0.03263946250081062, -0.1659446656703949, 0.036360740661621094, -0.04424095153808594, -0.06812120974063873, -0.06999076902866364, -0.02781800366938114, 0.1458597630262375, -0.12297753989696503, -0.07158593833446503, -0.09022476524114609, 0.004813077859580517, 0.11648344993591309, 0.03313148766756058, 0.09920279681682587, 0.18248437345027924, 0.09720896184444427, 0.12719888985157013, -0.005269541405141354, -0.09307596832513809, -0.14600394666194916, -0.07540243119001389, -0.020131481811404228, -0.010969092138111591, 0.08290999382734299, -0.030811680480837822, 0.17042215168476105, -0.08541187644004822, 0.2454107403755188, -0.05293453484773636, -0.0555177703499794, 0.05807936191558838, -0.17305220663547516, 0.007597106508910656, 0.018737580627202988, -0.052860457450151443, 0.0005874825292266905, -0.04036039113998413, 0.03132224455475807, -0.12914501130580902, -0.05919137969613075, -0.0393034927546978, 0.041366901248693466, 0.1367845982313156, 0.030711401253938675, -0.23348422348499298, 0.1462065726518631, 0.0726742073893547, -0.18935419619083405, 0.08581796288490295, 0.18505623936653137, -0.0023844712413847446, -0.039279285818338394, -0.17902687191963196, 0.008036129176616669, 0.1254296898841858, 0.00444759102538228, 0.08253392577171326, -0.004668166860938072, 0.13949623703956604, 0.056627798825502396, 0.16429050266742706, 0.21633721888065338, -0.06746314465999603, -0.04808395728468895, -0.031073512509465218, 0.05495266616344452, -0.06730727106332779, -0.07830638438463211, 0.14468739926815033, 0.047243501991033554, -0.03755878284573555, -0.046835463494062424, -0.18477466702461243, 0.011459112167358398, 0.017572052776813507, -0.05525291711091995, -0.1171996146440506, -0.13085433840751648, -0.038516633212566376, -0.020145272836089134, 0.10163429379463196, 0.004349351394921541, -0.03433222323656082, -0.1524449586868286, -0.09941108524799347, 0.06490979343652725, 0.14478373527526855, -0.03315157815814018, -0.05192410573363304, 0.08575058728456497, -0.017434800043702126, 0.13466346263885498, -0.21182096004486084, -0.15277428925037384, 0.07162033766508102, 0.002478282665833831, -0.18453897535800934, 0.01972200907766819, -0.05994423106312752, -0.03267485275864601, 0.08555983006954193, 0.0765635073184967, -0.02962644025683403, 0.0025428137741982937, 0.004114133771508932, -0.006478831171989441, -0.03748191148042679, -0.03718695044517517, -0.09910249710083008, -0.16228875517845154, -0.09019967913627625, -0.07298518717288971, 0.10884112864732742, -0.0008002857211977243, -0.02061658725142479, -0.09159340709447861, -0.1956566572189331, -0.04417678713798523, 0.13518741726875305, -0.06869965046644211, -0.08716069906949997, -0.011071820743381977, 0.04514783248305321, 0.1734306663274765, -0.02753770351409912, -0.10521138459444046, -0.14145022630691528, 0.1270468384027481, 0.07474963366985321, 0.006616420578211546, -0.23793534934520721, 0.10955376923084259, -0.10116370022296906, 0.18930251896381378, 0.18628919124603271, 0.010618172585964203, 0.11301790177822113, -0.043683718889951706, -0.09369674324989319, -0.04565969854593277, 0.052762553095817566, -0.07047663629055023, 0.0928962454199791, -0.0031388602219522, -0.18388232588768005, 0.03395038843154907, -0.12507237493991852, 0.15394845604896545, 0.2260303944349289, 0.13712622225284576, -0.007115804590284824, 0.10330168157815933, 0.040139272809028625, 0.023735759779810905, -0.17375548183918, 0.21616537868976593, 0.03169125318527222, 0.057272862643003464, -0.09404920041561127, 0.06600934267044067, -0.0356585867702961, 0.12611420452594757, 0.004354712087661028, 0.028414856642484665, 0.17276400327682495, -0.07452662289142609, 0.06608132272958755, 0.04058977589011192, 0.05901544168591499, -0.12248586118221283, -0.12646831572055817, -0.0738275796175003, -0.03322480991482735, -0.03884300962090492, 0.06633812189102173, -0.03278089314699173, 0.12565216422080994, -0.050759457051754, -0.009940930642187595, -0.1434784233570099, -0.25937652587890625, -0.03789334371685982, 0.12781403958797455, -0.04142066091299057, 0.040313247591257095, 0.10675538331270218, 0.0940718874335289, -0.018266238272190094, -0.09493425488471985, -0.0008997456752695143, -0.03699894994497299, -0.038852911442518234, -0.007905367761850357, -0.0775168240070343, 0.043629128485918045, 0.18303684890270233, -0.07268445938825607, -0.1263195425271988, -0.13412582874298096, 0.08506718277931213, 0.025202054530382156, 0.03467987850308418, -0.05794984847307205, -0.0680602416396141, 0.015989772975444794, -0.018038857728242874, 0.14865586161613464, -0.07104600965976715, 0.2549361288547516, 0.0225088931620121, -0.13313822448253632, 0.011450695805251598, 0.15817230939865112, -0.06612647324800491], [-0.018326280638575554, 0.05869007483124733, -0.03817879781126976, -0.08078110963106155, -0.14701929688453674, -0.02063976600766182, -0.10976150631904602, -0.12845608592033386, -0.131154403090477, 0.12203798443078995, -0.04203147441148758, -0.06656039506196976, 0.07317345589399338, -0.13597267866134644, -0.07851128280162811, 0.021327929571270943, 0.11482950299978256, -0.00032661683508194983, -0.02185354195535183, 0.3709318935871124, 0.07616036385297775, -0.09763042628765106, 0.06200919672846794, -0.019107038155198097, 0.06733052432537079, -0.025074511766433716, -0.004047357942909002, -0.011603349819779396, -0.09046237915754318, 0.006147382315248251, 0.11930190771818161, -0.011572157964110374, -0.054654303938150406, -0.1317398101091385, -0.11801022291183472, 0.10293301939964294, -0.1072399839758873, -0.1046595647931099, 0.14752981066703796, 0.09798300266265869, -0.2131141871213913, 0.09744670242071152, -0.13408707082271576, 0.022007938474416733, -0.001609605853445828, -0.019095610827207565, -0.013756880536675453, -0.10211267322301865, 0.17237073183059692, 0.0267165619879961, -0.1165999248623848, -0.035714041441679, 0.017011301591992378, 0.10806683450937271, 0.00637680571526289, 0.05291061848402023, -0.12848041951656342, 0.07289131730794907, -0.03184600919485092, -0.10003050416707993, 0.11492554843425751, -0.13798026740550995, 0.10510353744029999, 0.021822450682520866, 0.13588108122348785, 0.07947652786970139, -0.1842767894268036, -0.06598270684480667, 0.09421292692422867, -0.08128904551267624, 0.014952966943383217, -0.11138635128736496, -0.022494738921523094, -0.18849657475948334, -0.2242976874113083, 0.045094672590494156, 0.1094631627202034, 0.14034944772720337, -0.0389988087117672, -0.008496039547026157, -0.08613302558660507, -0.06936094909906387, -0.24891535937786102, 0.05245766043663025, 0.10216638445854187, -0.03921449929475784, -0.09148586541414261, -0.04696960374712944, 0.08455840498209, 0.05822605639696121, 0.07611158490180969, -0.015265208669006824, 0.024973547086119652, 0.037661485373973846, -0.005790661089122295, 0.19332195818424225, 0.10603325814008713, 0.013764583505690098, 0.05179346352815628, -0.1154889389872551, -0.03144492208957672, -0.08287639915943146, -0.08354716002941132, 0.05984470620751381, 0.32552221417427063, -0.10641409456729889, 0.10820172727108002, 0.010294923558831215, 0.06771359592676163, 0.15059582889080048, 0.11611726135015488, -0.026142392307519913, -0.19875364005565643, -0.035783883184194565, 0.11629600822925568, 0.14779910445213318, -0.15778635442256927, 0.04843297228217125, -0.1091553121805191, 0.028664106503129005, -0.06311964988708496, -0.013206122443079948, 0.08849581331014633, -0.05981753021478653, 0.11690173298120499, -0.005306321196258068, -0.11015098541975021, -0.0567220039665699, -0.14632616937160492, 0.01449139416217804, 0.022249367088079453, 0.036336515098810196, 0.03432557359337807, 0.2524292767047882, -0.12335518002510071, -0.12555864453315735, -0.19004470109939575, -0.11246069520711899, -0.033774323761463165, 0.10762718319892883, -0.06972397118806839, 0.12300559878349304, 0.01967034488916397, -0.03503486141562462, -0.039505019783973694, 0.1363876760005951, -0.06886466592550278, -0.03443369269371033, 0.038185253739356995, -0.05226590111851692, -0.004376264289021492, -0.1028783991932869, -0.08529031276702881, -0.05931665748357773, -0.024218561127781868, -0.13930152356624603, 0.18126432597637177, -0.1664392650127411, -0.1624588668346405, -0.15030597150325775, -0.027423975989222527, -0.13758793473243713, -0.06564135104417801, 0.021596556529402733, -0.14386944472789764, -0.14200682938098907, 0.1761934608221054, 0.06779397279024124, 0.07365543395280838, 0.022292746230959892, 0.15338318049907684, 0.07957039028406143, 0.08064001798629761, 0.060465630143880844, -0.07813918590545654, 0.1575562059879303, 0.02649316005408764, -0.08108264952898026, -0.014847454614937305, 0.029677512124180794, 0.04759693890810013, -0.11386369913816452, -0.09772647172212601, -0.06368643790483475, 0.038739461451768875, -0.17127157747745514, 0.2071334719657898, 0.11798302084207535, -0.0037944482173770666, 0.004281254950910807, -0.053552061319351196, -0.011260458268225193, 0.0686786100268364, 0.14276471734046936, -0.0038089307490736246, -0.12885673344135284, 0.04716881737112999, 0.07376418262720108, 0.10489401966333389, 0.015551346354186535, -0.14875192940235138, 0.0366101898252964, -0.058715105056762695, -0.07644140720367432, 0.11418112367391586, 0.02943778783082962, -0.14345479011535645, -0.06280054897069931, -0.014319095760583878, -0.07263601571321487, -0.03956041857600212, 0.025711754336953163, 0.026416726410388947, -0.22665917873382568, -0.0019981057848781347, 0.11433061957359314, -0.06584743410348892, 0.03660569712519646, 0.18271417915821075, 0.03325006738305092, -0.06976602971553802, -0.1421843320131302, 0.04839153215289116, -0.11819323152303696, -0.14164133369922638, -0.06944161653518677, -0.07689080387353897, 0.03198878839612007, 0.031055981293320656, 0.14790356159210205, -0.061662327498197556, 0.030040718615055084, 0.06597535312175751, 0.18346339464187622, 0.16986458003520966, 0.09111426770687103, 0.07460115849971771, -0.06627386808395386, 0.1431792974472046, 0.10429594665765762, -0.0152511615306139, 0.018052387982606888, -0.10038662701845169, 0.16360221803188324, 0.060525909066200256, 0.02940618433058262, -0.15010787546634674, 0.15223626792430878, 0.03671441972255707, 0.12965534627437592, -0.0820397138595581, 0.06988731026649475, 0.30827444791793823, 0.09002945572137833, -0.09022863954305649, -0.002457627095282078], [-0.13735422492027283, -0.0011137552792206407, -0.07896880060434341, -0.2159387469291687, 0.028059784322977066, -0.12454197555780411, 0.3380793631076813, 0.07961981743574142, -0.03444259986281395, 0.05892572179436684, 0.07751860469579697, 0.12077734619379044, 0.08475019037723541, -0.03393136337399483, 0.059246499091386795, -0.054489750415086746, -0.07784832268953323, 0.15115521848201752, -0.18498708307743073, -0.025436853989958763, 0.03123725764453411, 0.16240008175373077, -0.04185524210333824, -0.05923212319612503, 0.10024440288543701, -0.018720969557762146, -0.08305323868989944, 0.1172228455543518, 0.2201155126094818, -0.007675600238144398, 0.020045138895511627, 0.11489410698413849, -0.019411752000451088, -0.006244967225939035, -0.01480687502771616, -0.18630287051200867, 0.008554261177778244, 0.13167667388916016, 0.05776708573102951, 0.16575728356838226, 0.1753099411725998, -0.04711442440748215, 0.19330830872058868, -0.11993460357189178, 0.07535239309072495, -0.25930047035217285, -0.046580392867326736, -0.13117775321006775, 0.20877587795257568, 0.07186156511306763, -0.12021967768669128, -0.10797975212335587, -0.021666057407855988, 0.015770291909575462, -0.11928728222846985, -0.1700907051563263, -0.07688330113887787, -0.0534076914191246, -0.06728135794401169, -0.03592938929796219, 0.010865258984267712, -0.07665003836154938, 0.0036505816970020533, -0.018689166754484177, 0.016530612483620644, -0.009956051595509052, -0.10285349935293198, 0.11397932469844818, 0.1085318773984909, 0.025513416156172752, 0.053516633808612823, -0.13118106126785278, 0.028708409518003464, 0.003880073083564639, -0.02416597306728363, 0.1004607081413269, -0.10064921528100967, -0.1382862627506256, 0.07393703609704971, 0.06119060888886452, -0.03162967041134834, 0.011503499001264572, 0.024820569902658463, -0.19413118064403534, -0.04988117516040802, 0.03846720978617668, -0.08787471055984497, 0.07992763072252274, -0.09471184015274048, -0.05209983140230179, -0.18653744459152222, -0.01829470321536064, -0.019701974466443062, -0.01387999951839447, -0.002697015181183815, -0.01811731606721878, -0.10845912247896194, 0.0741376057267189, 0.02193661406636238, 0.017720628529787064, 0.03937448933720589, -0.09280403703451157, -0.06719519197940826, -0.12005379796028137, -0.05226501449942589, 0.15322986245155334, 0.15713226795196533, 0.09452078491449356, -0.15901786088943481, -0.16104912757873535, -0.16231901943683624, 0.06736183911561966, -0.052787285298109055, 0.07737678289413452, -0.03573448956012726, 0.20536701381206512, 0.06603043526411057, 0.08068369328975677, 0.01681789942085743, 0.04623645544052124, -0.13509495556354523, -0.06473399698734283, 0.11414401978254318, 0.019438136368989944, -0.05178225412964821, 0.018882181495428085, -0.09032297879457474, 0.11183709651231766, 0.004174820147454739, -0.04042307659983635, -0.011639576405286789, 0.10671260952949524, 0.05176104977726936, -0.02902553230524063, -0.14598767459392548, -0.10326162725687027, -0.1382596343755722, 0.16044320166110992, -0.12017872929573059, -0.037464264780282974, -0.1182333305478096, 0.041924793273210526, 0.016221607103943825, 0.0035547998268157244, 0.03110235556960106, -0.03325136750936508, -0.05515265092253685, -0.04637721925973892, 0.07386811077594757, -0.05951521173119545, 0.03643017262220383, -0.061836838722229004, 0.09515182673931122, -0.12630601227283478, -0.11613363027572632, -0.060515109449625015, 0.001862625009380281, 0.04316918924450874, 0.022742031142115593, 0.09990165382623672, 0.1620239019393921, 0.010318259708583355, 0.08698376268148422, 0.03948729485273361, 0.02962079644203186, -0.011372215114533901, -0.016555771231651306, -0.06397891789674759, -0.20493319630622864, -0.03514030948281288, 0.05129878222942352, -0.1111581102013588, 0.14272193610668182, -0.16463637351989746, -0.03783208876848221, -0.1503562331199646, 0.22386209666728973, 0.1347878873348236, 0.02938600815832615, 0.19667111337184906, 0.020620927214622498, 0.08737662434577942, -0.02485843561589718, -0.06025733798742294, -0.022584030404686928, 0.03452123701572418, 0.14017826318740845, 0.014785335399210453, 0.10718680173158646, 0.016718665137887, -0.032190315425395966, 0.03331354260444641, 0.02145238034427166, -0.027293173596262932, -0.12312823534011841, 0.07912810891866684, 0.039508920162916183, -0.0060261874459683895, 0.12449315935373306, 0.008560271933674812, -0.0282405074685812, 0.0032037035562098026, -0.21885333955287933, -0.1777023822069168, -0.022237492725253105, -0.13992413878440857, 0.11752764880657196, -0.18507802486419678, -0.033226076513528824, 0.09910737723112106, -0.09803441166877747, 0.09928912669420242, 0.17301246523857117, -0.08814387768507004, -0.059325821697711945, 0.05665898323059082, -0.13593821227550507, 0.027337592095136642, 0.012676197104156017, 0.11205046623945236, -0.15044820308685303, -0.16922178864479065, -0.15773174166679382, 0.049259427934885025, 0.1496332585811615, -0.010527377016842365, -0.0917716771364212, -0.0020278668962419033, -0.07953272014856339, -0.04143200069665909, -0.16445225477218628, 0.07084378600120544, -0.01896774210035801, -0.12102126330137253, 0.1208614706993103, -0.061462074518203735, 0.1212618425488472, 0.04690510034561157, 0.02862052619457245, -0.22673936188220978, 0.09684891998767853, 0.13371653854846954, -0.019809890538454056, -0.03340652957558632, 0.011561607010662556, -0.10792415589094162, -0.012151655741035938, -0.0002092157956212759, 0.014938388019800186, 0.21393230557441711, -0.04399387910962105, -0.1626034677028656, -0.06869903206825256, 0.2193114012479782, -0.05851857364177704, 0.018915794789791107], [0.1309049129486084, 0.10861342400312424, -0.033931050449609756, 0.21454930305480957, 0.3067619204521179, 0.008903419598937035, 0.07701200991868973, 0.023875156417489052, -0.047980014234781265, 0.07208987325429916, -0.025045612826943398, -0.04733994975686073, 0.008737163618206978, 0.05269765853881836, -0.034808069467544556, -0.1770104467868805, -0.07543434947729111, 0.049970488995313644, 0.07726139575242996, -0.15394869446754456, 0.09851448237895966, -0.002775308210402727, -0.06493639200925827, -0.07829838991165161, 0.04058465361595154, -0.05615345016121864, 0.020803291350603104, 0.09991005808115005, -0.1322452425956726, -0.07913472503423691, -0.11474883556365967, 0.025475040078163147, 0.11825071275234222, 0.08741659671068192, 0.1534327268600464, 0.0951518714427948, 0.09684230387210846, 0.12501609325408936, 0.010582770220935345, -0.18778589367866516, -0.12988793849945068, 0.1193094477057457, -0.21092240512371063, -0.06715982407331467, 0.01350838877260685, -0.1253909319639206, -0.16193294525146484, 0.09524114429950714, -0.11445663124322891, -0.11596415936946869, 0.04295630007982254, 0.06934754550457001, -0.02072148211300373, -0.03908395767211914, -0.31984469294548035, 0.01592840813100338, -0.000215642896364443, -0.09874559938907623, -0.08383796364068985, -0.018579505383968353, 0.12024958431720734, 0.12625232338905334, 0.07046125084161758, -0.07707563787698746, 0.07642096281051636, 0.05984430015087128, -0.011505097150802612, 0.04722294583916664, -0.10221465677022934, -0.1470486968755722, -0.1821383833885193, 0.04133743792772293, 0.08069127798080444, 0.03720025345683098, -0.026969561353325844, 0.07299137115478516, -0.0873136967420578, -0.07839670777320862, 0.16785378754138947, 0.19434107840061188, 0.014264974743127823, 0.07630128413438797, 0.0776146948337555, 0.004804753232747316, 0.05990726128220558, 0.033304404467344284, -0.11130375415086746, 0.02995894104242325, -0.09648920595645905, -0.09969677031040192, 0.165667325258255, 0.0862494632601738, -0.0026633564848452806, 0.06657694280147552, 0.08263315260410309, 0.19325284659862518, 0.0007326145423576236, 0.10440928488969803, 0.14993467926979065, -0.02835141308605671, 0.0325750894844532, 0.0801340863108635, 0.08250752091407776, 0.11136948317289352, 0.08358229696750641, -0.06860504299402237, -0.005350902210921049, 0.02838129550218582, 0.059248894453048706, -0.05322147160768509, 0.16150344908237457, -0.028395868837833405, 0.10948851704597473, 0.21461738646030426, 0.2663896381855011, -0.013089140877127647, 0.19105687737464905, 0.04396215081214905, 0.032343603670597076, 0.046663232147693634, 0.19745439291000366, -0.06053728610277176, -0.04471076279878616, -0.04881860688328743, 0.055502451956272125, 0.15818369388580322, 0.037854645401239395, 0.09074313193559647, -0.020646486431360245, 0.023001717403531075, -0.059509001672267914, -0.031417131423950195, 0.03874234855175018, -0.14574724435806274, -0.0920928567647934, 0.03964540734887123, -0.13614347577095032, -0.27528199553489685, 0.060569025576114655, -0.023361608386039734, -0.08630512654781342, 0.09644205868244171, -0.03332066908478737, -0.03726278990507126, 0.10446786135435104, -0.013243930414319038, -0.16648836433887482, 0.08366516977548599, 0.03282444179058075, 0.04330418258905411, 0.057450078427791595, -0.015508066862821579, 0.10612203925848007, 0.0855833888053894, 0.13501638174057007, 0.08415573090314865, 0.09099440276622772, 0.029865454882383347, -0.02389865554869175, -0.06980918347835541, 0.11386696249246597, -0.059819817543029785, -0.1982591301202774, -0.06286346167325974, 0.07930814474821091, -0.024268558248877525, 0.1622948795557022, -0.007735065184533596, -0.29413944482803345, 0.003208363428711891, 0.06697758287191391, 0.08637493848800659, -0.032224420458078384, 0.02812107652425766, 0.005390073172748089, -0.0850118100643158, -0.026331504806876183, -0.05715996026992798, 0.051811229437589645, 0.034638285636901855, 0.01756191998720169, 0.018526272848248482, 0.07684991508722305, 0.03878369182348251, 0.08502861857414246, 0.0754905566573143, 0.05385589972138405, -0.034042444080114365, -0.060884568840265274, 0.13856330513954163, 0.157365620136261, 0.0393838994204998, 0.15592940151691437, 0.04135192930698395, -0.08514321595430374, -0.08057064563035965, 0.06704331934452057, 0.17263057827949524, -0.15837350487709045, 0.05232562869787216, -0.07257146388292313, -0.03627517819404602, 0.0662221610546112, -0.06398694962263107, 0.056016117334365845, 0.09667696058750153, 0.07821296900510788, 0.005860192235559225, 0.18338046967983246, -0.04961400479078293, -0.07870444655418396, -0.07262901216745377, -0.015279857441782951, -0.08186689019203186, -0.38088932633399963, 0.02268780767917633, -0.056661803275346756, 0.13465537130832672, -0.08716525882482529, -0.055178262293338776, -0.2503034174442291, -0.0723680630326271, 0.057655464857816696, -0.10178627818822861, 0.10446219146251678, 0.17061151564121246, -0.04614238440990448, -0.036410216242074966, 0.07637406140565872, -0.006800503470003605, -0.04918355494737625, 0.16956780850887299, 0.15338152647018433, -0.11817073822021484, 0.09301160275936127, 0.01098925992846489, -0.03211440518498421, 0.034135643392801285, 0.11926376819610596, -0.028596695512533188, 0.08855593949556351, 0.023503586649894714, -0.14096350967884064, 0.0663890540599823, -0.08846349269151688, -0.041234489530324936, 0.06595384329557419, -0.0948415994644165, 0.04008682444691658, 0.12423860281705856, 0.022841237485408783, 0.1524682343006134, -0.03542783856391907, -0.008031126111745834, -0.0753960907459259, -0.09609926491975784], [-0.02313370816409588, -0.007684637792408466, -0.07613100856542587, -0.14785753190517426, 0.001739191124215722, 0.033956848084926605, -0.22590883076190948, -0.14321526885032654, 0.36958497762680054, -0.003519491059705615, 0.10782911628484726, -0.03816243261098862, -0.048960354179143906, 0.1401028335094452, -0.04917064309120178, 0.06486368924379349, -0.10143822431564331, 0.12312941998243332, 0.003435039659962058, 0.09265843033790588, -0.004387545865029097, -0.08845984935760498, -0.05165097489953041, 0.07274273782968521, 0.032483551651239395, -0.09527435153722763, -0.03566468879580498, -0.03948688507080078, 0.04539758339524269, 0.016971677541732788, -0.0658281147480011, -0.13773508369922638, 0.029945485293865204, -0.19939446449279785, -0.007278528995811939, -0.24771088361740112, 0.06146449223160744, -0.16954046487808228, -0.35435184836387634, 0.001039679627865553, 0.015838945284485817, 0.029332105070352554, 0.16147083044052124, 0.08879068493843079, 0.019675523042678833, 0.2592235803604126, -0.011323492974042892, -0.12210258096456528, -0.0161710474640131, 0.0014980995329096913, -0.15080811083316803, 0.08460453897714615, -0.08201219886541367, 0.07869335263967514, 0.19901835918426514, -0.017596367746591568, -0.11194376647472382, -0.05391598120331764, -0.21020111441612244, -0.05422467365860939, -0.07198106497526169, -0.11510135978460312, -0.033851258456707, -0.20223131775856018, -0.005758584942668676, 0.0535268560051918, -0.1119091659784317, 0.0029987520538270473, -0.02173912525177002, -0.026950528845191002, 0.04176659882068634, 0.10537883639335632, -0.171981543302536, -0.07329736649990082, 0.059307631105184555, -0.05777844414114952, 0.01687302067875862, -0.09371218085289001, -0.09986843168735504, 0.06238730251789093, 0.0033668153919279575, -0.0401630774140358, -0.06514879316091537, 0.010843313299119473, -0.03387726470828056, 0.05691467225551605, -0.02995653636753559, -0.06590370088815689, 0.18911567330360413, 0.07872384041547775, -0.02838321216404438, 0.012015647254884243, 0.057659100741147995, -0.05143176391720772, -0.031493451446294785, 0.06907734274864197, -0.060040559619665146, -0.09908441454172134, 0.010134189389646053, 0.17172954976558685, -0.07499927282333374, -0.10256321728229523, -0.0376344695687294, -0.017801199108362198, 0.0012503176694735885, 0.1480560451745987, 0.05580137297511101, 0.06133803725242615, -0.09556713700294495, 0.044896408915519714, 0.05299382656812668, 0.02532145008444786, -0.09381517022848129, -0.03305647149682045, 0.0541975311934948, -0.01727355271577835, 0.026371151208877563, 0.2775474190711975, 0.16827210783958435, -0.09142415970563889, -0.11676665395498276, 0.04417828842997551, -0.027638651430606842, 0.07941577583551407, 0.057309892028570175, 0.09921234101057053, 0.06092703714966774, -0.010177270509302616, 0.03541174903512001, -0.016959598287940025, 0.13972409069538116, 0.024155231192708015, -0.030180662870407104, 0.12013748288154602, -0.01919926330447197, 0.12277205288410187, 0.18508349359035492, -0.10838104784488678, 0.24819502234458923, -0.035655196756124496, 0.20978787541389465, 0.11018071323633194, -0.015632444992661476, 0.07442221790552139, -0.11857066303491592, -0.06908030807971954, -0.0625169426202774, 0.1750490367412567, 0.011479145847260952, -0.1763986349105835, -0.041174571961164474, 0.07369474321603775, 0.1410389095544815, -0.08041207492351532, -0.06322712451219559, 0.06586892157793045, -0.05645238235592842, 0.13409210741519928, 0.0225405041128397, 0.0522780679166317, 0.10562141984701157, 2.055760342045687e-05, 0.05115304887294769, -0.0050607104785740376, 0.02558123879134655, -0.03567299619317055, -0.020489735528826714, 0.16505490243434906, -0.06736082583665848, 0.20594586431980133, 0.03312927484512329, -0.0607733316719532, -0.18173648416996002, -0.02349381148815155, -0.15707239508628845, -0.008091210387647152, 0.05978978052735329, -0.05856809392571449, -0.04657402262091637, -0.06397777795791626, 0.03859774023294449, 0.13557745516300201, -0.028663845732808113, -0.1089688241481781, 0.0025844306219369173, -0.03696054965257645, -0.10461397469043732, 0.044486116617918015, -0.014729699119925499, -0.005353942047804594, 0.12577715516090393, 0.034272950142621994, 0.003702562302350998, -0.03383932262659073, -0.1067216768860817, -0.11957666277885437, -0.035306576639413834, 0.021837692707777023, 0.03873889148235321, 0.1836891770362854, -0.07647623866796494, -0.16748005151748657, 0.04354408010840416, 0.01903589628636837, -0.12115278095006943, 0.06827215105295181, -0.011859862133860588, 0.13601046800613403, -0.06600965559482574, 0.04628303647041321, -0.17027853429317474, 0.06850558519363403, 0.19023440778255463, -0.027008799836039543, -0.012117891572415829, -0.060353055596351624, 0.11107626557350159, 0.11111029982566833, -0.011812017299234867, -0.00620983587577939, 0.16850151121616364, -0.16225191950798035, 0.04760821536183357, -0.05966723710298538, 0.1406220942735672, -0.125272735953331, 0.015439076349139214, -0.14615049958229065, -0.024912983179092407, -0.032079748809337616, 0.061470575630664825, -0.14612600207328796, 0.19156169891357422, -0.026576677337288857, 0.07890181988477707, -0.13158738613128662, -0.035502951592206955, 0.09499308466911316, -0.025489265099167824, -0.09903901070356369, -0.03955204784870148, 0.11684401333332062, -0.03966797515749931, 0.16180011630058289, -0.13893666863441467, 0.1073850616812706, -0.09278914332389832, 0.037064772099256516, 0.09083254635334015, 0.05732644721865654, -0.024616800248622894, -0.07418480515480042, -0.061604928225278854, -0.13581663370132446, 0.0865795686841011, -0.13582055270671844], [0.08755390346050262, -0.09821818768978119, -0.16100385785102844, -0.007527533452957869, -0.007616497576236725, 0.00941651314496994, 0.014512342400848866, 0.10820513963699341, -0.2564135491847992, -0.2765679359436035, -0.08941660076379776, -0.05958796292543411, -0.11854597926139832, -0.06366752833127975, -0.029947921633720398, 0.11735399812459946, 0.1052674949169159, -0.2603684663772583, 0.015705548226833344, -0.03859860450029373, 0.042671192437410355, 0.0044701904989778996, -0.034111931920051575, 0.04262370616197586, 0.04968152195215225, 0.04667212441563606, 0.019698491320014, 0.2396310269832611, -0.13907884061336517, 0.06614129990339279, 0.03161689639091492, 0.00747419148683548, 0.10547207295894623, 0.02935342863202095, 0.03160683065652847, -0.15845274925231934, -0.07419511675834656, 0.0810905396938324, -0.1038031131029129, -0.01947237364947796, -0.11913248151540756, -0.008554837666451931, -0.01909593679010868, -0.18655110895633698, 0.03475165367126465, -0.20809021592140198, 0.08145153522491455, 0.07175514847040176, -0.04954083263874054, 0.01843208074569702, -0.15832604467868805, 0.048253703862428665, -0.08991868048906326, -0.16589835286140442, 0.16709308326244354, -0.17547360062599182, -0.03712031990289688, 0.04201240837574005, -0.1739814579486847, -0.017745034769177437, -0.049399714916944504, 0.06641050428152084, -0.06325989961624146, 0.013285287655889988, 0.06998606771230698, 0.11461465060710907, 0.04234858974814415, 0.20903024077415466, -0.06390142440795898, 0.2516385316848755, 0.02881650999188423, -0.053045984357595444, -0.032684456557035446, 0.11273549497127533, 0.12858843803405762, -0.0006799902766942978, -0.10184043645858765, -0.09733404219150543, -0.15957775712013245, 0.036974627524614334, 0.06297227740287781, -0.036061886698007584, 0.05315586179494858, 0.018805544823408127, -0.01688617467880249, 0.12342344969511032, 0.015303006395697594, -0.04661259055137634, -0.02119818702340126, -0.011862539686262608, 0.16779226064682007, 0.054932091385126114, 0.0714510977268219, 0.003497500903904438, 0.19211657345294952, 0.08250552415847778, 0.0077170091681182384, -0.03316996991634369, 0.1119878888130188, -0.07792061567306519, 0.16337896883487701, 0.0611688494682312, 0.09984051436185837, 0.1473555713891983, -0.0006253470783121884, -0.06380610913038254, -0.03377095237374306, -0.16377659142017365, 0.1393558830022812, -0.008669651113450527, 0.06813409924507141, -0.04410979896783829, 0.06812093406915665, -0.007106815464794636, -0.016571596264839172, 0.13506397604942322, 0.13688895106315613, -0.02364709973335266, 0.20855188369750977, 0.11213549971580505, -0.06325735151767731, 0.026575453579425812, 0.08822087198495865, -0.0855429470539093, 0.10733794420957565, 0.04707563295960426, -0.17898328602313995, 0.00201067584566772, 0.1520041972398758, 0.1316724270582199, -0.15084385871887207, 0.0818031057715416, 0.0806250125169754, -0.26707834005355835, 0.05880124866962433, -0.027882574126124382, 0.10734595358371735, -0.01855952851474285, -0.010076839476823807, 0.011267955414950848, -0.07045001536607742, -0.26378411054611206, 0.1340630054473877, 0.0467514842748642, -0.13613301515579224, 0.054902926087379456, -0.0387805812060833, 0.08961792290210724, -0.11615437269210815, 0.010123171843588352, -0.0444774255156517, -0.13732752203941345, -0.13303707540035248, -0.06610513478517532, 0.16153061389923096, 0.01594155840575695, 0.11380743235349655, 0.11964407563209534, -0.008517909795045853, 0.0009061673772521317, 0.13383659720420837, 0.013343560509383678, 0.046494461596012115, -0.06955385953187943, 0.16222524642944336, 0.07167170196771622, 0.08986862003803253, 0.08824148029088974, -0.09630580246448517, -0.016127221286296844, 0.1650848090648651, -0.04394617676734924, 0.19679272174835205, 0.018434885889291763, 0.19786551594734192, 0.032949429005384445, -0.06631139665842056, 0.04803335666656494, 0.11217446625232697, -0.005663940217345953, 0.07980552315711975, 0.023592166602611542, 0.05127955600619316, -0.19486352801322937, -0.05414457246661186, 0.21290697157382965, -0.026472164317965508, 0.1055779755115509, 0.06790908426046371, 0.07215653359889984, -0.07481469213962555, -0.000214254338061437, -0.007943036034703255, 0.20428675413131714, -0.022948242723941803, -0.16176322102546692, -0.09546279907226562, -0.024085193872451782, 0.15162250399589539, -0.07323342561721802, -0.2051461935043335, 0.1617964804172516, -0.03470577299594879, -0.025500664487481117, 0.06182122603058815, -0.08479846268892288, -0.09056082367897034, 0.16676858067512512, -0.11665933579206467, 0.022648967802524567, -0.2623143494129181, 0.023771168664097786, 0.026885932311415672, 0.006469316780567169, -0.006750825326889753, -0.0827033519744873, -0.003985102754086256, -0.029673537239432335, 0.0713886097073555, 0.1965354084968567, 0.023469090461730957, 0.10491888225078583, -0.05979439616203308, 0.019424734637141228, -0.0358605682849884, 0.105155348777771, -0.04746115952730179, 0.029694365337491035, 0.0016654579667374492, -0.023860182613134384, 0.24710886180400848, -0.03857976943254471, 0.09131404012441635, -0.04114515334367752, 0.14718817174434662, -0.05907785892486572, 0.008681750856339931, -0.07800650596618652, -0.2501884996891022, -0.06453870981931686, 0.057868603616952896, 0.02580205164849758, 0.00981767475605011, 0.0394972562789917, 0.01256339717656374, 0.014892255887389183, 0.026842065155506134, 0.1364051252603531, 0.070213682949543, 0.11341480165719986, -0.030629776418209076, 0.004660730715841055, 0.09841550141572952, -0.06577546894550323, 0.0513954795897007, 0.0029967371374368668], [-0.007960059680044651, -0.08363287150859833, 0.05642789974808693, 0.050864338874816895, -0.042728688567876816, -0.10965650528669357, 0.06402283906936646, 0.05709279328584671, 0.028781551867723465, -0.0874188095331192, 0.03050925023853779, 0.020358411595225334, 0.04657568037509918, -0.14177124202251434, -0.0492737777531147, -0.24386298656463623, 0.06448507308959961, -0.07011952251195908, 0.015357366763055325, -0.0254835095256567, -0.024186067283153534, -0.004418889060616493, -0.016298683360219002, -0.03084385022521019, 0.07715508341789246, -0.06694302707910538, -0.039028968662023544, -0.08524994552135468, -0.005000687204301357, -0.13917939364910126, -0.11045296490192413, -0.04448650777339935, -0.0726332738995552, 0.029264351353049278, 0.02937043458223343, 0.000397651398088783, -0.033965952694416046, 0.0689496323466301, -0.09448263049125671, -0.20690570771694183, 0.008758792653679848, -0.05661890283226967, -0.03108220174908638, -0.13742990791797638, 0.0159272700548172, 0.0006680040969513357, 0.05071350559592247, 0.034949395805597305, 0.011530175805091858, -0.049805544316768646, -0.030080394819378853, 0.1703043133020401, 0.06825768947601318, 0.23661762475967407, 0.31262850761413574, -0.018479391932487488, -0.004657159559428692, 0.1838795691728592, -0.14937035739421844, 0.09321442991495132, 0.054232921451330185, -0.04238596186041832, 0.03178233653306961, 0.0455792173743248, -0.12051796913146973, 0.058031585067510605, -0.045405980199575424, -0.25635239481925964, 0.013662583194673061, -0.20303288102149963, 0.004456720780581236, 0.12492343038320541, 0.0696231946349144, 0.08088624477386475, -0.0561051145195961, 0.04186253994703293, -0.07815403491258621, 0.10215548425912857, 0.03339604288339615, 0.10844225436449051, -0.21776004135608673, 0.13443976640701294, -0.021797532215714455, -0.0505836084485054, -0.06781689822673798, -0.09744475036859512, -0.026752764359116554, -0.0062050907872617245, 0.08712050318717957, 0.022901827469468117, 0.057627685368061066, -0.04648632928729057, 0.144739031791687, -0.20344968140125275, -0.1461363583803177, -0.10844098776578903, -0.07120651006698608, 0.06063556671142578, 0.08951548486948013, -0.137505441904068, 0.11082647740840912, 0.0029788375832140446, 0.0278139878064394, 0.10809668898582458, -0.021988844498991966, -0.2234337478876114, 0.18684008717536926, -0.02424510382115841, -0.034461695700883865, 0.05820372700691223, 0.09603727608919144, -0.043628089129924774, 0.19581365585327148, -0.003813592717051506, -0.15162067115306854, -0.05525203421711922, -0.09680063277482986, 0.05983973667025566, 0.06684558093547821, 0.20766374468803406, -0.07311509549617767, -0.036265403032302856, 0.1364724338054657, -0.06107080355286598, 0.021954063326120377, 0.12912307679653168, -0.058893054723739624, -0.0034593010786920786, 0.16194646060466766, -0.09129180014133453, -0.0012123375199735165, -0.012018462643027306, 0.10353150963783264, 0.09039343893527985, 0.26547691226005554, 0.021669453009963036, -0.2033137083053589, -0.06466734409332275, -0.006580575834959745, -0.13794735074043274, 0.14390341937541962, -0.09987153857946396, -0.12294283509254456, 0.15687376260757446, 0.09306838363409042, -0.02254875935614109, -0.0040052710101008415, 0.16215604543685913, -0.007499200291931629, 0.019663706421852112, -0.17530834674835205, -0.09157799929380417, 0.09784939140081406, 0.04138470068573952, -0.09119249880313873, -0.04706757515668869, -0.11437419801950455, -0.030866479501128197, -0.1654428243637085, -0.08763301372528076, 0.03582286834716797, 0.11587860435247421, -0.01622745953500271, -0.13606417179107666, 0.04133541136980057, -0.06385347247123718, -0.09365503489971161, -0.12729845941066742, 0.017062341794371605, 0.06769786030054092, -0.09007280319929123, 0.12696123123168945, 0.07714661955833435, 0.15998683869838715, -0.15874916315078735, -0.07378841936588287, -0.10046669840812683, 0.038685157895088196, -0.08301657438278198, 0.08843028545379639, -0.08772963285446167, -0.10627400875091553, 0.004256976768374443, -0.0926390141248703, 0.09070263057947159, 0.05767837166786194, 0.029748376458883286, 0.09180135279893875, -0.10350995510816574, -0.14674092829227448, -0.12292195111513138, 0.02166764996945858, -0.012075387872755527, -0.027096755802631378, 0.04217813163995743, 0.061833322048187256, 0.04823865368962288, 0.15737660229206085, -0.06838993728160858, -0.08856514096260071, -0.17632892727851868, 0.07693865150213242, -0.03658974915742874, -0.021382400766015053, -0.0852774903178215, 0.09552492946386337, -0.07019029557704926, 0.03815390169620514, -0.26360902190208435, -0.0251142755150795, -0.06773126870393753, -0.06095350906252861, -0.12535850703716278, -0.07679753005504608, 0.09287547320127487, -0.11933823674917221, 0.022327084094285965, 0.021461697295308113, -0.030841277912259102, 0.04042874649167061, -0.13334457576274872, 0.18786340951919556, 0.030127491801977158, -0.05874740332365036, -0.029681192710995674, -0.007240917533636093, -0.038439951837062836, -0.08054488152265549, 0.021090926602482796, -0.14780782163143158, 0.03175996616482735, 0.06275321543216705, 0.069243423640728, 0.04940894991159439, 0.17704173922538757, 0.1439901888370514, -0.16619254648685455, -0.11701632291078568, -0.05435507372021675, -0.004287424497306347, 0.15281081199645996, -0.002523066010326147, 0.12547136843204498, 0.037459634244441986, -0.04548787325620651, 0.021847059950232506, 0.14594320952892303, -0.027245426550507545, 0.12175533920526505, 0.00027416524244472384, 0.059800390154123306, 0.07665207237005234, -0.02300829254090786, -0.018238482996821404, -0.17749300599098206, 0.051038481295108795], [0.08142317086458206, 0.03968003764748573, -0.08367156982421875, 0.05181709676980972, -0.06642630696296692, 0.08747654408216476, 0.09142796695232391, -0.055242858827114105, 0.12634021043777466, -0.06067415699362755, -0.16965168714523315, 0.11656709015369415, 0.12141352146863937, 0.07289299368858337, 0.04687323793768883, 0.056408483535051346, 0.04291290044784546, -0.20487463474273682, -0.15894749760627747, 0.061400603502988815, -0.1601211130619049, -0.15481479465961456, 0.05810140073299408, -0.12424781173467636, 0.10413703322410583, 0.03271041437983513, -0.06455682963132858, 0.06107816472649574, -0.011260531842708588, -0.033945873379707336, -0.0512436144053936, -0.0697902962565422, -0.11668521165847778, -0.01953018829226494, -0.004592561163008213, -0.03963017836213112, 0.02924477867782116, 0.24640312790870667, 0.1490664929151535, 0.06506604701280594, 0.026104804128408432, -0.08512431383132935, 0.08913756161928177, -0.061265069991350174, 0.04108857735991478, 0.15177901089191437, 0.11308007687330246, 0.1841936558485031, -0.05750647559762001, 0.03497394546866417, 0.004051868803799152, -0.09951108694076538, 0.008386313915252686, -0.10220592468976974, -0.008691791445016861, 0.0916968509554863, -0.09293697774410248, 0.011583738960325718, 0.08139432966709137, -0.08457449823617935, 0.03574233502149582, -0.006864174734801054, 0.027906065806746483, -0.05591046065092087, -0.005813309922814369, -0.0796961709856987, -0.026204746216535568, -0.08461284637451172, -0.1323794573545456, 0.03513212502002716, -0.08248316496610641, -0.03641798347234726, 0.1545528769493103, 0.009608038701117039, -0.02245265431702137, -0.055857595056295395, -0.10198395699262619, -0.0702817514538765, -0.05978435277938843, 0.13675183057785034, 0.0900435820221901, -0.06929785758256912, -0.05756225064396858, -0.09652560204267502, 0.03208027780056, -0.03489372879266739, 0.04295704886317253, -0.01363238226622343, 0.06075908616185188, 0.13804438710212708, 0.18396945297718048, 0.16083158552646637, 0.27702003717422485, 0.13865242898464203, -0.06752800941467285, -0.0028844629414379597, 0.03419988229870796, -0.12351486086845398, 0.017246585339307785, 0.08131164312362671, -0.005037077236920595, -0.018322622403502464, 0.07662752270698547, -0.11953449994325638, -0.15895169973373413, 0.116784006357193, 0.1638449728488922, -0.08722474426031113, -0.07109684497117996, -0.011833282187581062, -0.10455210506916046, -0.09223231673240662, 0.16683882474899292, -0.047895412892103195, -0.004172507673501968, -0.0926038920879364, 0.04389239102602005, -0.07598758488893509, -0.044964101165533066, -0.07344601303339005, -0.07909700274467468, -0.06372018903493881, 0.11260190606117249, 0.06466512382030487, -0.19451427459716797, -0.03104299120604992, -0.008875567466020584, 0.021921727806329727, -0.09881439805030823, 0.026105865836143494, 0.1256909966468811, 0.08917001634836197, -0.018974484875798225, 0.012302706018090248, 0.14940325915813446, 0.029264207929372787, 0.08019404858350754, 0.16793008148670197, 0.13777488470077515, 0.14815491437911987, -0.03735126927495003, 0.02226833812892437, 0.182857483625412, 0.11407256126403809, -0.04100358858704567, 0.04530463367700577, 0.023769255727529526, -0.09081368893384933, 0.020907390862703323, 0.2541761100292206, 0.0627693459391594, -0.04476669803261757, 0.0895223543047905, 0.13796131312847137, -0.25246068835258484, -0.038883425295352936, 0.017947020009160042, 0.1298864483833313, 0.11308703571557999, 0.1501138061285019, -0.06033040210604668, -0.010915840044617653, -0.1358080506324768, 0.03088494762778282, -0.1088513731956482, -0.02271437831223011, -0.106045201420784, -0.5286590456962585, -0.01296310219913721, 0.09988944977521896, -0.050252534449100494, 0.017993571236729622, -0.06115957349538803, 0.03910081088542938, 0.061424486339092255, -0.07965615391731262, 0.022617962211370468, 0.10479335486888885, 0.07365577667951584, 0.08906199038028717, 0.12811866402626038, 0.08272325247526169, 0.0022408270742744207, 0.17347967624664307, -0.11618798971176147, -0.09250731021165848, 0.11246579885482788, 0.12491373717784882, 0.05059627443552017, -0.014665580354630947, 0.08297515660524368, -0.21211124956607819, 0.020380832254886627, 0.04770197346806526, -0.07240951806306839, -0.07648969441652298, -0.0839063823223114, 0.04785113036632538, 0.12765374779701233, -0.019106341525912285, 0.02302541770040989, 0.10319317132234573, -0.06734023988246918, 0.02910875529050827, -0.039525967091321945, 0.16953060030937195, -0.00147329643368721, 0.24830861389636993, 0.012454676441848278, -0.11326687783002853, -0.015695592388510704, 0.07107002288103104, -0.008967043831944466, -0.35199034214019775, -0.09127646684646606, -0.1155846118927002, 0.08549239486455917, -0.12143610417842865, -0.05100754648447037, -0.05573711916804314, -0.06892431527376175, 0.08646485209465027, -0.032164592295885086, -0.03570426255464554, -0.09248044341802597, 0.055406324565410614, -0.017593864351511, 0.09322962164878845, -0.056840673089027405, -0.04436403512954712, 0.004601163789629936, 0.1221662163734436, -0.02766398899257183, -0.11143676936626434, -0.21566182374954224, -0.12638507783412933, 0.18191178143024445, 0.061368368566036224, -0.05768170207738876, -0.0020414316095411777, 0.011333865113556385, -0.07362380623817444, -0.03665279969573021, 0.0028508722316473722, -0.02287367917597294, 0.028222860768437386, 0.1485765427350998, 0.10918650031089783, -0.04126135632395744, -0.24282306432724, 0.0730707049369812, 0.00026289522065781057, 0.1290518045425415, -0.03286060690879822, -0.03447641059756279, 0.18229886889457703], [-0.006937614642083645, -0.09347008168697357, -0.0007270504720509052, -0.08923747390508652, -0.100501649081707, -0.004349796567112207, 0.16090646386146545, 0.092082679271698, -0.20773625373840332, 0.07806690782308578, -0.10839548707008362, 0.025116948410868645, -0.09731347858905792, 0.07303942739963531, -0.14250916242599487, -0.0033174946438521147, -0.134479820728302, -0.05558886006474495, 0.14090006053447723, 0.019381718710064888, -0.09192388504743576, 0.01924200914800167, 0.03172386437654495, 0.0760778933763504, -0.14011605083942413, -0.08524756878614426, 0.10189101845026016, -0.15998685359954834, -0.06281615793704987, -0.04184935614466667, -0.08240395039319992, -0.11109942942857742, -0.0539328008890152, -0.048613280057907104, 0.013266526162624359, 0.166913703083992, -0.014839913696050644, -0.014295772649347782, 0.22795283794403076, 0.09350930154323578, -0.1326855719089508, 0.024683760479092598, 0.00805741548538208, 0.16828100383281708, -0.061850473284721375, -0.023208007216453552, -0.07384152710437775, 0.03680761158466339, -0.11837514489889145, -0.033011265099048615, -0.07522325962781906, -0.024482592940330505, -0.21705307066440582, -0.07812157273292542, 0.014979057013988495, -0.15738430619239807, 0.1402428150177002, 0.02984381653368473, -0.14659668505191803, 0.06795980036258698, 0.037364501506090164, -0.056169308722019196, -0.06822468340396881, 0.053751856088638306, -0.12853778898715973, 0.005950307473540306, 0.20151975750923157, -0.05589631199836731, -0.006720638833940029, -0.12740108370780945, -0.13216204941272736, -0.06840287148952484, -0.21073248982429504, 0.18017347157001495, 0.07664122432470322, -0.14991888403892517, -0.06633444875478745, -0.04348544403910637, -0.042407069355249405, -0.14774827659130096, -0.024844301864504814, -0.005370677448809147, 0.21928691864013672, 0.03611590340733528, 0.016826389357447624, -0.056829068809747696, 0.06678367406129837, 0.022738054394721985, -0.12130209058523178, 0.03403857722878456, 0.03697582334280014, -0.051258258521556854, 0.04672470688819885, -0.020117884501814842, -0.0809781551361084, -0.09491552412509918, -0.13605767488479614, -0.057902976870536804, -0.03814312443137169, 0.0266729723662138, 0.043237123638391495, -0.31327319145202637, -0.0820448100566864, -0.04401155933737755, -0.10399630665779114, -0.08233994245529175, -0.038150325417518616, 0.07016174495220184, -0.09055159240961075, 0.03516603633761406, 0.11585637927055359, -0.10726913809776306, -0.15585432946681976, -0.02484402246773243, -0.014638706110417843, -0.11882134526968002, 0.09965568035840988, 0.008148683235049248, -0.015666760504245758, 0.060370851308107376, -0.13927124440670013, -0.12893429398536682, 0.01834758184850216, 0.11507350951433182, 0.031227821484208107, 0.0512358732521534, -0.10480085015296936, 0.10006316006183624, 0.058393385261297226, -0.027944369241595268, 0.07041746377944946, -0.009586727246642113, -0.08845771104097366, -0.025580359622836113, -0.09032637625932693, 0.11389467120170593, -0.026361938565969467, 0.0817021057009697, 0.18808810412883759, 0.13930237293243408, -0.0648031160235405, -0.0230704452842474, -0.021942514926195145, 0.03686364367604256, 0.08509502559900284, 0.03790000081062317, -0.022864598780870438, 0.05185847729444504, -0.006365042645484209, 0.07464317232370377, 0.033867720514535904, -0.003284845966845751, 0.033407729119062424, 0.09730522334575653, -0.059105366468429565, -0.18757250905036926, 0.09031844139099121, -0.18441876769065857, 0.023393914103507996, 0.2818180322647095, 0.04505022615194321, 0.0997854620218277, 0.1585700958967209, 0.12276150286197662, -0.02075112797319889, -0.008944240398705006, -0.02962895669043064, 0.028173528611660004, -0.11235278099775314, -0.08517209440469742, 0.18387025594711304, -0.01905469037592411, 0.025303978472948074, -0.1273670494556427, -0.053180914372205734, -0.12698708474636078, -0.05439991131424904, 0.17389190196990967, 6.936808495083824e-05, -0.06680361926555634, -0.1699136197566986, -0.10664215683937073, 0.07262733578681946, -0.05793165788054466, 0.001313399407081306, -0.05435296520590782, -0.04654662311077118, 0.047542013227939606, 0.07781253755092621, 0.11859114468097687, -0.09951280057430267, 0.016795514151453972, 0.04220337048172951, 0.12060985714197159, 0.09813284873962402, 0.08353908360004425, -0.03462456539273262, 0.2612258791923523, 0.1419900357723236, -0.10349693894386292, 0.11871849745512009, -0.13244035840034485, -0.04226628690958023, 0.11417821794748306, 0.2851881682872772, 0.10868893563747406, 0.1835378110408783, 0.1130896657705307, -0.002019500592723489, 0.06644692271947861, 0.015006428584456444, 0.023584555834531784, -0.0020680762827396393, -0.09545377641916275, -0.08431385457515717, -0.012776154093444347, 0.03719330579042435, -0.0548633337020874, 0.0068480707705020905, 0.10778526961803436, -0.03833925724029541, 0.06566472351551056, 0.05147258937358856, 0.1875617951154709, -0.10243606567382812, -0.03320614993572235, 0.0190323144197464, -0.09816738963127136, -0.019365057349205017, -0.040453556925058365, -0.05186047777533531, 0.13911619782447815, -0.048973772674798965, 0.0804520770907402, -0.06439889222383499, -0.03708602860569954, 0.047694262117147446, -0.11069796234369278, -0.10986131429672241, 0.027506191283464432, -0.006707863882184029, -0.2330860197544098, -0.06072293967008591, 0.025808952748775482, 0.11627708375453949, 0.07277645170688629, -0.17520269751548767, 0.12260101735591888, -0.11576717346906662, 0.033625051379203796, 0.07976100593805313, -0.0883481502532959, -0.027318479493260384, -0.09544386714696884, -0.034833330661058426, -0.07322335243225098], [-0.05433741584420204, 0.11016154289245605, -0.07435664534568787, 0.27021193504333496, -0.028339626267552376, 0.05571138858795166, 0.09660888463258743, 0.09563632309436798, -0.15260638296604156, 0.03227436542510986, -0.0963229238986969, -0.008121584542095661, 0.06687123328447342, -0.028894633054733276, 0.022877836599946022, 0.026494156569242477, -0.06403931230306625, 0.08199125528335571, -0.0667887032032013, 0.11947701871395111, 0.07654602080583572, 0.17203983664512634, 0.059872087091207504, -0.04114054515957832, 0.0026801361236721277, -0.05115564540028572, 0.13842090964317322, 0.09267346560955048, 0.033225804567337036, -0.19478116929531097, -0.07966914772987366, 0.02495083026587963, 0.030838558450341225, -0.10989241302013397, -0.1389714628458023, 0.10603465884923935, -0.05088265985250473, 0.033677492290735245, 0.027376258745789528, 0.21450652182102203, -0.05234180763363838, -0.25487592816352844, 0.05364389717578888, 0.06482446193695068, 0.11265254020690918, -0.21143804490566254, 0.08182188868522644, -0.18396279215812683, 0.18961846828460693, -0.03308121860027313, 0.0739210695028305, 0.04434354603290558, -0.011217144317924976, -0.2104676067829132, -0.21285636723041534, -0.15635250508785248, -0.0924137681722641, -0.05396903306245804, 0.12054278701543808, 0.054571155458688736, -0.023725910112261772, 0.10076678544282913, 0.07368706911802292, -0.031043818220496178, 0.04478524625301361, 0.04208990931510925, 0.037218522280454636, 0.07093939930200577, 0.00304955686442554, 0.09405934065580368, -0.019176790490746498, -0.14790849387645721, 0.17383353412151337, -0.0399492084980011, 0.17179575562477112, -0.05769979581236839, -0.11337225139141083, -0.04847179725766182, -0.061457160860300064, -0.03432227671146393, 0.04867926612496376, 0.16322173178195953, -0.04284245893359184, 0.10691525042057037, -0.038861121982336044, 0.05558675527572632, -0.0914892926812172, -0.022454164922237396, -0.10371074080467224, 0.11153662949800491, 0.17926664650440216, -0.05977379530668259, -0.005114518105983734, -0.10787185281515121, 0.0882379412651062, 0.12037631124258041, -0.023803740739822388, 0.03650474175810814, 0.0014703352935612202, 0.05154569447040558, 0.03664164990186691, -0.009523571468889713, -0.08552585542201996, 0.050166890025138855, 0.07944971323013306, 0.03938659653067589, 0.1489393264055252, 0.1287616640329361, -0.05424279719591141, -0.07832849025726318, -0.1698516607284546, -0.0695093646645546, -0.1089252382516861, 0.00472077215090394, 0.10095322132110596, -0.20900438725948334, 0.050869669765233994, 0.03528662025928497, 0.03128840774297714, -0.1705838292837143, -0.09924039989709854, -0.07982324063777924, -0.010073412209749222, 0.05646679177880287, -0.06485272943973541, -0.007853723131120205, 0.04731287807226181, 0.12795789539813995, -0.09014225751161575, -0.021155720576643944, 0.04282839223742485, 0.006884539499878883, -0.010027620941400528, 0.23921267688274384, -0.12961332499980927, 0.010352939367294312, -0.1287500262260437, 0.07714678347110748, -0.0959366112947464, -0.09839630126953125, -0.04519245773553848, -0.17026910185813904, 0.09362402558326721, 0.013535934500396252, -0.08023156225681305, 0.1619826704263687, -0.05043957009911537, 0.09846590459346771, 0.053494904190301895, 0.14303039014339447, 0.10901854932308197, -0.048087555915117264, 0.009029259905219078, -0.13381899893283844, -0.060315925627946854, -0.07740253955125809, 0.01265968568623066, -0.22737202048301697, 0.018171017989516258, 0.037922635674476624, -0.027495812624692917, 0.01774423196911812, 0.08191198855638504, 0.15059323608875275, -0.01166574563831091, 0.01991414651274681, -0.026770129799842834, -0.3304094076156616, 0.018594129011034966, 0.13661763072013855, -0.007680817041546106, -0.02073611132800579, -0.0040590278804302216, -0.10152564942836761, -0.20989352464675903, 0.12382041662931442, 0.12144399434328079, 0.06392664462327957, 0.019492655992507935, -0.08309056609869003, -0.10214683413505554, -0.006865512579679489, -0.14256994426250458, 0.1896621286869049, 0.08471132069826126, -0.1071699783205986, -0.05725111812353134, -0.20437858998775482, -0.09187522530555725, 0.089077889919281, 0.026920136064291, -0.005528606008738279, -0.026969846338033676, 0.15980838239192963, 0.021437011659145355, -0.14023981988430023, 0.07003664970397949, -0.034748051315546036, -0.06762998551130295, -0.18981586396694183, 0.0036477872636169195, -0.04222998395562172, 0.025378277525305748, 0.10905659943819046, 0.1443171203136444, 0.08291888236999512, -0.07127142697572708, 0.13574889302253723, 0.01608710177242756, 0.04519668594002724, -0.10279419273138046, 0.12306441366672516, -0.1982526332139969, -0.03250669687986374, 0.18541009724140167, -0.23651814460754395, -0.10129018127918243, 0.09172475337982178, -0.28560805320739746, -0.097674161195755, 0.24174079298973083, 0.0255080908536911, -0.016617536544799805, -0.06617628037929535, -0.009567241184413433, -0.012063384987413883, 0.001998456194996834, 0.02713118866086006, -0.11621162295341492, -0.12071211636066437, 0.0978383719921112, -0.03353745862841606, 0.006066101137548685, 0.17283394932746887, 0.0031220295932143927, 0.04739358648657799, 0.02009674347937107, -0.07456928491592407, 0.06532720476388931, -0.1270175725221634, 0.09088840335607529, 0.05069223791360855, 0.2146756947040558, -0.0772850513458252, 0.01633172482252121, 0.1948016881942749, 0.01962738111615181, 0.040858034044504166, 0.03409871459007263, -0.12646028399467468, 0.03929036855697632, 0.13579727709293365, -0.20428277552127838, -0.05738690495491028, -0.19621242582798004, 0.020417887717485428], [0.2176291048526764, 0.09904313832521439, -0.09196142107248306, -0.012981511652469635, 0.12278755009174347, 0.0417640395462513, -0.1801208257675171, 0.11555320769548416, -0.05190205201506615, 0.12735086679458618, 0.21702687442302704, -0.1871539205312729, -0.00652703270316124, 0.12936019897460938, 0.03338577225804329, 0.007908611558377743, 0.05539083853363991, -0.09141742438077927, 0.06647737324237823, -0.06801378726959229, 0.035274580121040344, 0.13215461373329163, -0.10090919584035873, -0.06509233266115189, -0.1139300987124443, -0.10302016884088516, -0.2184799760580063, -0.033228252083063126, 0.10805128514766693, -0.10836546123027802, -0.22296884655952454, -0.021897979080677032, 0.03742573782801628, 0.03603105992078781, 0.022216012701392174, -0.0733562633395195, -0.01708977296948433, -0.029220711439847946, 0.07774902880191803, 0.19281159341335297, -0.07519149035215378, 0.04331021010875702, -0.05823388695716858, -0.11706189811229706, 0.005699804984033108, -0.19143663346767426, 0.058712467551231384, 0.11428146809339523, 0.0138651542365551, -0.08115505427122116, -0.04448017105460167, -0.0005615946720354259, -0.21237517893314362, -0.04707227647304535, 0.03168518841266632, 0.17786486446857452, -0.04743264988064766, 0.08470609039068222, 0.08167494088411331, 0.05481797829270363, 0.07263226062059402, 0.02294539473950863, -0.0613209493458271, -0.034331951290369034, 0.08015525341033936, 0.19732840359210968, 0.22469639778137207, 0.08430805802345276, 0.07937785238027573, 0.11702554672956467, -0.06504122167825699, 0.023798134177923203, 0.08786632865667343, 0.00440332293510437, -0.07116095721721649, 0.0458923876285553, 0.25730931758880615, -0.07999251782894135, -0.09013183414936066, -0.024347960948944092, 0.21632950007915497, 0.016659636050462723, -0.047363609075546265, 0.06859107315540314, -0.037647366523742676, 0.0180165097117424, -0.0162843968719244, 0.037771403789520264, -0.05038496479392052, 0.0048293909057974815, 0.04838796332478523, 0.14459951221942902, 0.06118062138557434, -0.0587395541369915, -0.010081224143505096, 0.010685063898563385, 0.004612742457538843, -0.051169198006391525, 0.05295376107096672, -0.05225342884659767, 0.1041080504655838, 0.09145741164684296, 0.1602129489183426, -0.08195018768310547, -0.1793043464422226, -0.12722870707511902, -0.04026942327618599, -0.13291561603546143, 0.0339716374874115, -0.01636250875890255, -0.09910920262336731, 0.11090653389692307, -0.14379630982875824, -0.02047659642994404, 0.31468284130096436, -0.09710276871919632, -0.06917794048786163, 0.08142084628343582, -0.034307777881622314, -0.10439049452543259, -0.0071272896602749825, -0.14960452914237976, -0.03517952188849449, 0.12480266392230988, -0.11360733211040497, 0.015559832565486431, 0.02045399136841297, 0.004321213811635971, 0.10506171733140945, 0.08242855966091156, 0.04552103579044342, 0.0660809800028801, -0.01286713220179081, -0.03873414173722267, 0.0438208170235157, -0.1529199331998825, -0.024227049201726913, -0.004596814513206482, 0.027316518127918243, 0.03940391167998314, -0.10433341562747955, 0.15596820414066315, -0.031739458441734314, -0.06679633259773254, 0.13540580868721008, 0.11385371536016464, -0.01745315082371235, 0.0073588755913078785, -0.03552887588739395, 0.09508571028709412, -0.11599346995353699, -0.09872656315565109, 0.13896258175373077, 0.13873015344142914, 0.047434475272893906, 0.20190417766571045, 0.17924892902374268, -0.16797228157520294, -0.09824606031179428, -0.05572248250246048, -0.04538869857788086, 0.06186474487185478, 0.1242944598197937, 0.09753216058015823, 0.07472030073404312, -0.19313491880893707, -0.06076449528336525, 0.04165509343147278, -0.04706237465143204, -0.13673579692840576, 0.03024706244468689, -0.19236867129802704, 0.03269217163324356, -0.05454769358038902, 0.021759435534477234, -0.07865636795759201, -0.13197432458400726, -0.022853702306747437, 0.06531912833452225, 0.24368786811828613, -0.05266140401363373, -0.03532768413424492, 0.05581130459904671, -0.026199404150247574, -0.3002033233642578, -0.2832964062690735, -0.13053272664546967, -0.09208641946315765, -0.003799414960667491, -0.22815898060798645, 0.14137215912342072, 0.1759963184595108, 0.1551741063594818, 0.07284438610076904, -0.04467702656984329, 0.06203062832355499, 0.03717629984021187, 0.06959224492311478, 0.14369279146194458, -0.070644810795784, -0.04281593859195709, -0.003328796476125717, -0.0979958325624466, -0.09537452459335327, -0.22495752573013306, -0.2014329731464386, -0.12514983117580414, 0.12564916908740997, -0.060376908630132675, -0.02071315608918667, -0.04019041359424591, 0.01102958619594574, 0.007737136445939541, -0.07780920714139938, 0.036677975207567215, 0.11947417259216309, -0.10153449326753616, -0.09530218690633774, -0.09132701903581619, -0.030011925846338272, -0.02145332656800747, -0.16262516379356384, -0.05488887056708336, -0.060234434902668, 0.12939749658107758, 0.08393042534589767, -0.07872837781906128, 0.03755808621644974, -0.06036647781729698, -0.09426479786634445, 0.013652147725224495, -0.017027979716658592, 0.03700505569577217, 0.1500300168991089, -0.13326463103294373, -0.10246777534484863, 0.11135104298591614, -0.02681763842701912, -0.10509742051362991, -0.022344743832945824, 0.11936725676059723, -0.06924782693386078, -0.07044917345046997, 0.037612434476614, -0.009458977729082108, -0.056553974747657776, 0.04818949103355408, -0.052170850336551666, 0.0956140011548996, 0.06619689613580704, -0.04075262323021889, 0.09919954836368561, -0.09661045670509338, -0.011442799121141434, -0.0512305311858654, -0.0637761726975441], [-0.005436957813799381, 0.02945302613079548, 0.1648932844400406, 0.06329957395792007, 0.0969776138663292, -0.1442066729068756, 0.10677729547023773, -0.0076146842911839485, -0.07842520624399185, 0.0362481027841568, 0.01749677211046219, -0.002239443361759186, -0.11817089468240738, -0.08648673444986343, 0.28853723406791687, 0.16743284463882446, 0.027920490130782127, 0.007976215332746506, -0.11858265101909637, -0.11797831207513809, -0.004382635932415724, 0.12021797150373459, -0.022946085780858994, -0.017721114680171013, 0.128368079662323, 0.08121295273303986, 0.25251471996307373, 0.21457934379577637, 0.07746556401252747, 0.16079558432102203, 0.08330342918634415, -0.01114631723612547, -0.11988462507724762, -0.07295919954776764, 0.15129491686820984, -0.22787851095199585, -0.1282014101743698, 0.03867035359144211, -0.11111056059598923, -0.07349181175231934, -0.17268210649490356, -0.048515480011701584, -0.322923481464386, -0.11580705642700195, 0.04511583596467972, -0.18601703643798828, -0.007253934629261494, 0.04315529018640518, -0.291238933801651, 0.025127239525318146, 0.08484991639852524, -0.06462271511554718, 0.10826361924409866, -0.0427369587123394, -0.12482357770204544, -0.12138434499502182, 0.03376155346632004, -0.015804419293999672, 0.07020526379346848, 0.10518778860569, 0.20058389008045197, 0.007141054142266512, 0.11419693380594254, 0.09371114522218704, -0.1094028577208519, -0.041280485689640045, -0.10503731667995453, 0.08346589654684067, 0.0896010771393776, -0.11475730687379837, -0.09870140999555588, -0.10586422681808472, -0.1155511885881424, 0.01844915747642517, -0.3254309296607971, 0.1143428161740303, 0.07458341121673584, 0.24388839304447174, 0.03634827956557274, -0.2402680367231369, 0.08980031311511993, -0.022382952272892, 0.008180738426744938, -0.02761085517704487, -0.22542522847652435, -0.10080301761627197, 0.028799837455153465, 0.0013386401114985347, 0.05616268143057823, 0.06394673883914948, -0.07164730131626129, -0.1806541532278061, 0.0935593843460083, -0.051463037729263306, 0.07714205235242844, -0.0286630317568779, -0.12281160801649094, -0.03291923552751541, 0.01705273985862732, 0.03331023082137108, 0.14967556297779083, 0.023123035207390785, -0.1037168800830841, 0.16360895335674286, -0.1688409447669983, -0.010117318481206894, -0.034825365990400314, 0.09852059185504913, 0.02610202133655548, 0.19891966879367828, -0.11694242805242538, 0.02500404231250286, -0.00030301761580631137, -0.07040897756814957, -0.14461277425289154, 0.10334376245737076, 0.14248137176036835, 0.22677531838417053, 0.18645791709423065, -0.2506047189235687, -0.03138938173651695, -0.14003343880176544, 0.07134465128183365, -0.02447473630309105, -0.05533752962946892, 0.05981944128870964, 0.0004731210647150874, 0.1507481336593628, 0.0036343936808407307, -0.008076620288193226, 0.048329006880521774, 0.1259523332118988, -0.11421982198953629, -0.04162164032459259, -0.025055427104234695, 0.06839964538812637, -0.049819447100162506, -0.09327412396669388, -0.08815363049507141, 0.02448453940451145, 0.09855654835700989, 0.10165850818157196, -0.06274488568305969, -0.037675462663173676, -0.04758767783641815, 0.08527837693691254, 0.17254474759101868, 0.09658578038215637, 0.02682971954345703, 0.07055476307868958, 0.13970144093036652, 0.1340307891368866, -0.08303652703762054, 0.17614246904850006, -0.026357093825936317, 0.1154288798570633, 0.006266129668802023, 0.023107154294848442, -0.009146755561232567, 0.23613472282886505, -0.03918630629777908, -0.004589286167174578, 0.0054491134360432625, -0.034784700721502304, -0.0877503752708435, 0.04990493133664131, 0.038580141961574554, 0.03915320709347725, 0.020902160555124283, 0.040332626551389694, 0.012204800732433796, 0.21050004661083221, 0.012835563160479069, 0.07018794864416122, -0.034298717975616455, 0.07057097554206848, -0.07439760118722916, -0.027082515880465508, -0.07525457441806793, 0.11107505857944489, -0.00961474608629942, 0.09291771054267883, 0.06670654565095901, -0.13047991693019867, 0.05247623845934868, -0.008462016470730305, 0.025075364857912064, 0.08207260072231293, 0.006997500546276569, -0.0456538200378418, -0.1236906424164772, 0.006198698654770851, 0.010845583863556385, 0.02439267188310623, 0.03631274402141571, -0.03558678925037384, 0.008464732207357883, 0.19674141705036163, -0.08119392395019531, -0.08183418959379196, -0.036999594420194626, -0.09407147020101547, -0.1361076384782791, 0.049191366881132126, 0.1668558120727539, 0.03256205841898918, -0.10229010879993439, -0.05293278768658638, 0.2620870769023895, 0.034556467086076736, 0.08274375647306442, -0.07345852255821228, -0.04781680554151535, 0.07562542706727982, 0.018939455971121788, 0.13534227013587952, 0.11381229758262634, -0.08275499194860458, 0.02816116251051426, 0.195093035697937, 0.10342231392860413, 0.035483915358781815, 0.05073264613747597, -0.05924677476286888, -0.03979993239045143, 0.026062648743391037, 0.007478906307369471, 0.003283117664977908, -0.0586899071931839, 0.07768242061138153, -0.11916455626487732, 0.1457052379846573, 0.010066447779536247, 0.11621887981891632, 0.07539547979831696, 0.008571872487664223, 0.1497151106595993, 0.08647382259368896, 0.1807076632976532, -0.14358896017074585, 0.11220661550760269, 0.013239720836281776, 0.07565217465162277, -0.07804502546787262, -0.050687771290540695, 0.11118358373641968, 0.1512884944677353, 0.05071767419576645, 0.10298149287700653, -0.0757254958152771, -0.05387362092733383, 0.07130225002765656, 0.07397213578224182, -0.06911098957061768, -0.004948832094669342, 0.021948330104351044], [0.12804612517356873, -0.12207943946123123, -0.2410103678703308, 0.12440507113933563, 0.04323524609208107, 0.010957353748381138, -0.19118458032608032, 0.2255527228116989, -0.02879255637526512, 0.07742415368556976, 